function [b1,IW1_1,IW1_2,IW1_3,IW1_4,IW1_5,IW1_6,IW1_7,IW1_8,b2,LW2_1,b3,LW3_2,b4,LW4_3,b5,LW5_4] = Parameters(BCs)
switch (BCs)
        case 1
              % ===== NEURAL NETWORK CONSTANTS =====
% Layer 1
b1 = [0.88580881738274586112;-1.4892205796100965731;1.600928673501960775;3.005604534562920982;-0.030915886318659858978;-1.2606273161617078671;0.94623716981606964538;2.5589549361530075089];
IW1_1 = [-0.020839791562689887611;-0.002344775514773267313;0.024947878973572003986;0.0019287543130014903666;0.024955376653364544359;0.0016319735099615251522;0.0035184702661858959123;0.0010899444558990604992];
IW1_2 = [-1.5302085133826479613;-3.6580294095832530665;-1.6044925408943939704;-3.1205901614828985835;-0.16460514371229009734;0.9550553741378811079;-0.40591649697218512571;3.8204829071960233478];
IW1_3 = [-1.5322612340357959493;1.9820891983398336578;-1.6028649055807779877;7.3549867117329501554;-0.16297708116568929149;0.76049745382802602656;-0.41404329102002712659;-1.4289020133278060865];
IW1_4 = [3.3563453204845102398e-05;0.18916701826637946637;-1.5137899399410835951e-05;-0.5682022686194583283;-1.5143201469789860185e-05;-0.92282432129477609539;-8.9132461043134970707e-05;-0.26221153367163724246];
IW1_5 = [0.012527936535774955584;-0.00031087872103873945805;0.00016189226996096061023;0.00025700232427931351533;0.00016191362193496104389;-8.8815414096045182846e-06;-0.00090896809084689751158;0.00014162546638711649466];
IW1_6 = [0.00012778925742071482285;5.6334408289497506955e-05;-0.00016776601866410383794;-0.00034076293015617543187;-0.00016779238158149206652;-0.00028476832097967574907;0.094885219792758934698;-0.0006660968455242716104];
IW1_7 = [5.5498055281416979584e-06;9.4208529947095284089e-06;-0.19182455504877726771;-2.9760128154625108783e-06;0.1920427555629437566;2.0243887574090006864e-06;-1.6832935470527491821e-05;-2.4491815903353793439e-05];
IW1_8 = [-3.8910041310198092502e-05;0.3791024105122223764;4.8055016560317326269e-05;-1.1368700580165507219;4.8073696379938928263e-05;1.8461669248793060039;0.00023673571916675082544;0.78154626940012483782];

% Layer 2
b2 = [3.907836540841779005;2.8764618016910912246;0.67920943727244542654;-9.7353686069270661818;-5.2678466045757534886;-0.54602080511867001622;2.5902460378029688037;-3.8926093529134826454;0.80356607701021254275;0.060834642170414031381;0.14478294205123037885;2.3675376694504999264;0.79289081846345521587;2.2562788817495085247;0.14466789554300951703;-1.7692804632415946031;5.5944789577173068551;-0.46972115812553766334;-2.2569154044829176087;0.88148719398734853847];
LW2_1 = [-0.0054149951410788288789 0.61286468564614604571 -0.016074061383764881583 -1.9869082548550753842 -0.016010347304476771346 1.3010760055533889812 -0.0019551002164057773927 0.4799322001013591743;-0.29645314197314531768 -0.031212417463876977741 11.280803230968977857 0.022476238801863297062 11.267980713739095933 0.008793888739497473378 0.04760071972160517112 -0.0089349630924703184881;-0.070944672004895681372 -0.024367390096490394724 2.2718287701860329086 0.026182406855494465281 2.2691243238840557161 0.035020219555202757034 -0.33608366097085351498 -0.0060636242974450842852;0.019558924585399397461 -0.41366854990780826951 0.021565021592590563615 0.34470425506498864054 0.021547008950384600318 -8.5093722733958916393 -0.0019249613672044454428 -0.068632933678881166695;-6.7655456872879558006 -0.081216769499380656039 -2.3454986202452103861 0.04732475164433177367 -2.3426458680522834754 0.14278328800998713044 -0.043466873693210152096 -0.12495867388438174073;-0.0081898102954977031881 -1.4712218557811529429 -0.053941435160542151872 0.54462708491794098453 -0.053842598811297305572 -1.6787095175591493224 0.0060570844796607311786 0.40578410650017882055;0.063312836692999557853 -0.0030639062109877861911 1.5105443105450149233 -0.0044671771684281023213 1.5085554480762353169 -0.027674430515587045143 -4.3078798937876694453 0.010728910824094703425;0.18634336403137868876 10.348539656184808422 0.38935068283181856197 -2.2777013542431516768 0.38851482872845122252 -2.6003409265835535358 -0.010091051499057247104 0.078199938372131599928;-9.6155027167632255961e-05 0.68575077461278455271 0.015945362943577432585 -0.92766137479108823349 0.015924654547742098099 -0.075592797328498703702 0.0037647683172264850317 0.14264199409449618283;0.0018333373891377118415 0.0027197137017113317409 0.041096705466581326394 0.083485376204277803036 0.041099731998638061592 0.13951263491599188993 0.06996061631081552934 -0.020954632354594073668;0.007347028673092372876 0.041317364101771975049 2.077320616335324388 0.0054552659262902189474 -2.0653481968040972028 0.98219604837831731015 0.0015579217279297753566 0.052445057914182989511;0.0082176059692273956125 1.4901729477457439366 0.031147827375778321113 -2.7175594884710472243 0.031080786312493263041 1.0709157211835853563 -0.0026059097299884169396 -0.022853821158081821796;-0.22099456178741300194 -0.012008432949620740857 0.6694106626013446304 0.0026277117479434840795 0.66835032848162467811 0.015289533580184524672 -4.0656231776497468999 0.0054190235392778179566;0.00030637456484422010729 -0.019228015818806964282 -7.6937036081462153447 0.018804607642367781456 7.1234307909287961635 0.069584557820375564363 0.021909341765895748444 0.016221643587053285324;0.0073539402271972894101 0.041325761039946264097 -2.0672247190019064078 0.0054512386303076643124 2.0779050128241234319 0.98215097420530961259 0.0015555242767628886177 0.052450709586038521404;0.050694246386320543363 -0.71498161503781709758 0.061280652610437164052 -2.7923061248842664384 0.06114838272745663772 -1.5258268923658511174 -0.018839011688563212649 0.34248940343397044073;9.3763343040432491904 0.0063955666807659931547 0.86636054416254004718 -0.013143291476688958794 0.86521233726747459603 -0.0037420179520492747455 -0.17449369680139148464 -0.0065376999624963492291;0.17222008266249327901 0.0024884702530108488219 0.42617006346677027695 -0.0027670810396668407867 0.42579864569390141193 -0.0032847321727542287337 1.7937711034745607019 -0.0070903877299208018306;-0.00027185623885489057202 0.019221305112511584412 -7.1240682307918490324 -0.018796815509314009074 7.6900289687818155215 -0.069513759831072219342 -0.021911425744973827417 -0.016214815025118775593;-0.010167974727923646469 0.050658521486955633562 0.0028463479352978477907 0.4835751294933632316 0.0028559855057857137794 -0.59603806108241297324 0.011270903532773404038 -0.83253417500168480636];

% Layer 3
b3 = [-7.0956573219536682728;-1.1311326830490082695;-1.8760422406541652496;-3.6816952371485966999;1.8495735628352327762;3.3196995506644242369;-2.8196658391766118434;0.21844287862676345369;0.96203325163859854108;2.4598124969974533016;1.9600650737278202396;-3.8992549866637360445;-3.4823355937465643173;-2.5224594022236299651;-1.9370780429096650099;-0.85294580264240049683;3.6765795879296661042;-2.1503745813997228176;-5.5769102749878900482;-2.3999472060313236099];
LW3_2 = [0.90550074936051827557 -0.28954928429148629743 0.11200327488738433257 0.19541490122741325686 0.69387432242786173386 -0.049736043551620277847 0.057605726139977136979 -0.1576542901726214474 -0.56248975775544696187 2.721387303132650537 -0.86182409653015834561 0.1810495701103546351 -0.19361871439647504456 4.652287527679831669 -0.86117400307907532309 -0.4260146486275025457 -0.023229767380470958682 0.036941440537785960596 -4.6593152048102446372 -1.0053001391567775169;-0.28873108987546830528 1.4705034561289636041 0.15337157198871800845 -0.13573063944984448126 0.18249671182942589498 0.051680587879576987687 0.26252635903941412554 0.25113486645351529303 -0.46675008351240521165 -0.84829963045204803684 0.096547158008323766265 0.12988012845374216631 -2.8008752553620710479 -0.60027334430438850088 0.09644846998766359869 0.16377956333401477718 0.11955717195299954414 -0.21210236245179064918 0.60127418411964106415 -0.05007399445688598405;-3.5006650485138544049 -0.0028691673867094744967 -0.11074148061342599381 -3.3874572518575041258 -0.12008789372198024059 0.686058130760429985 0.10695310563268782544 -0.30816426835975929688 1.1237001637651649055 1.9153380958863712724 0.66886978548291253777 -0.049992069634835288594 -0.23577518859959803454 0.32996558146100729569 0.66851213820544297395 0.35899930536440616269 0.067970276602207141403 0.043470845434564107934 -0.33052139624535797902 1.1202030778046325743;0.062201036614859546436 5.3875222588675404367 0.68759711899231423793 0.028615713593934648945 -0.10752426536327805429 0.0023818507348056447426 0.28328899993303718885 0.059063557179574018019 0.13335679917010015427 0.59293493511466355272 -0.16955004790185682073 -0.00057962210189320569325 3.1514043215797555852 0.12977473668012753927 -0.16942420169614666459 0.074121249548389833706 -0.046623855623080329158 -1.686243751035698013 -0.13002641364905312416 -0.073913358414580188072;0.46507342287056757657 0.16952342371188039438 0.49017524613415752732 -0.3611597366852442037 0.33362357667048325727 -0.48307789548885271547 -0.064465210513874618425 -0.19192943171822149373 -0.51507505830243804912 -0.43751335526288454014 -0.094478133171854369876 -0.33277771113957549387 3.0564353677562801082 0.44904827578380313025 -0.09440790388402672817 -0.1124636534351220879 0.13680076408984107039 0.78480237586115475512 -0.44976168355647933028 -0.42912461863175749288;-0.35610627254916077389 -5.421914403814515282 5.9230994705723869487 -0.010119120590194386963 -2.7107333462797309487 -0.10725117269027688305 -0.48808411149075475732 -0.071154387155076229132 -0.27332682555873011321 -0.53195894452342495917 0.04193279381170456066 0.0075671983361745593505 -1.5924087123371366559 -0.82699099119192887031 0.041883473949227569 -0.070562576608774824072 -0.41520050834272465012 0.82196286716154154384 0.82869077608669561297 -0.15736611462476807199;-0.90252411289496536906 0.80106926873206629747 0.3547985069112272738 -0.22737929382961996616 1.0921892429815041048 -0.0020785833111367038074 -0.057967784026159943633 -0.11258401176021377854 0.15235900566018759084 -2.6391323514390694349 0.45704345550719216451 -0.099683868936573591379 -0.8582652135978469099 1.4694071450952561619 0.45683793727390553663 -0.0087384972188659960912 -0.11549664804138130847 -0.16872196135306796738 -1.4714454996466908021 0.61460621239178991893;-0.015318536992130116561 -1.7228958322692333738 -0.98252299809075771542 0.04711167831412380741 -0.20883454432965264935 0.080718470912037890153 0.12276720154238725258 0.21725758175634340974 0.16526477544956721943 0.34311094200167113755 -0.064612435664072778718 0.029235820470699461215 -2.2064579289485992675 -0.40219341070285380413 -0.064548273748726042731 0.22005807678395397642 0.13512577094411776235 -0.41314074374528636513 0.40275531523394281219 0.062499909917981433249;1.3248122391364105521 -0.33409115487715568271 -0.0024545857163030091082 0.86552704596601237608 -0.8498868898049570797 -1.1071972476821538844 -0.074361702173560292883 -0.86543124696124451578 0.19910054615740921391 -2.5676428911486119944 0.45575388910480574278 -0.88774196020149642727 0.44938592580975750268 -0.32526049281775437638 0.45551546398958403516 -0.694835405154963337 0.030812072160739858301 0.089510873584447342433 0.32584364526955350572 -0.15202194867271753842;0.30145488173830298217 -0.48898145172534474012 0.023707580827861413769 0.61351391531486287878 -0.22340555335864892283 0.66857077536437325982 0.10955051883112032485 -0.72978049244892917446 -0.33969072335058220213 0.44679925892810357091 -0.030350496505870776937 0.81335786202492543762 0.073449488394894013599 -1.3055004026745511414 -0.030346344863076520765 -1.174067865588956705 0.16585176548333657731 0.44694480334111547082 1.3073740252011840646 -0.15844737376401302198;-0.21041726491912576824 0.042652713639854643313 0.024516388066734232792 -0.034528452162463516006 0.66906860938543533113 1.2989309098293686517 0.00069106168283107930698 -3.4200665768387552568 -1.8463380025690818709 -0.21787394844101914959 0.14538926827911391459 1.7194840143450336178 -0.0045959213572729371369 -0.60752773708217810977 0.14528025147755507795 -3.9016830483028823728 -0.01417526297691139997 0.019631005619388644523 0.60848507451061517592 -0.068165104703617612758;-0.58177228521083002022 -0.46729646594042495433 2.0567575486540694563 -0.28426105424626441076 -2.5914704190554553875 0.10042436191300642412 0.4224775450590743664 1.4259432331417474238 -0.27295504942929293968 -1.3584292741132959481 0.115575923567489941 0.14879350309741404268 0.17164658808480481866 0.95759820284976915339 0.1156054601318023678 1.3779905498649416273 3.2701860473489143821 2.1107165386761814752 -0.95890769885254911742 0.31195340935974835705;3.7937332810230142144 0.10592055553921217448 -0.023800253550467321412 3.1450901039169552043 0.29524762533973680778 2.6126516227148042226 0.017433512308264995094 -4.1465338062919858686 2.1689194221832659437 0.85892778314708340126 -0.80629349821813078858 -1.9969593462361350245 -0.045702359038108222866 -0.59449757861739027653 -0.80589283325352900622 -2.3837217533949259796 -0.036250583037633225814 -0.041280257265213879392 0.59536694411822144168 1.0609301004810105518;2.2790276088965635282 -0.034848773748305250653 -0.0065892236048921519476 -0.30228376396825396011 -0.70153040580031211793 -1.0217214480958602962 0.023349526107459838559 -1.0097610332711521863 -0.4733048852326152689 -0.53989106160602162721 -0.024157726710700818534 -0.63889079896574796358 0.010850765995187772531 0.66873782016630078928 -0.024126543703286745107 -0.78807810279430068334 0.067139549171194287669 0.072811286128050406452 -0.66968663196023470174 -0.71115271336082486187;-0.064606178066215547151 0.015626205275627854524 1.7081991823580779943 -0.12248668035028410783 -0.82420580063868009724 0.2196266847351401319 0.21448615939937681896 0.75284565102022216188 -0.61993288607526120249 0.57499454001594418884 -0.31278378615250879147 0.32548150391559216299 0.48635067875545062721 0.8253160095197132895 -0.31257394078187056286 0.52774119689124532329 2.453037175500024869 1.4135642776417529642 -0.82648635698440642283 -0.27591032487610583912;0.3349326052749332927 -0.24914236548312618247 0.06087300853514013288 -1.7080133920582984963 0.085800531795174009297 -0.17013057398027961464 -0.021365895821148627592 0.046819990760756421966 -1.4614244260490067973 -0.32227688988522745772 -4.3646157033773880229 0.58813036258883122365 -0.12959346431684046208 -0.65414444852382047646 -4.361997506779825784 0.33956210799641289855 -0.095529219503233023247 -0.027930152465524209215 0.65429226265077855551 -0.36261155927646504527;2.89325903748105695 -0.2569745827206521005 0.019093344106555040773 0.62041130402277266942 -0.14867782123732176114 -1.0839435301050310834 -0.049595169698495547572 -1.4779117756935213901 -2.060834264939434668 -3.0475987999734162059 -0.21756694335334689216 -0.21604081401692382114 0.3995162367270044812 -1.0358517948835419542 -0.21747624071950677482 -2.011434542746398435 0.017871486392297557949 0.15521369131011619746 1.0375518791512721162 -1.4423282592445048067;1.2229784422831186941 0.75318640523529789554 -1.8071780810738269363 0.10625517451946735192 2.8820960991932582651 -0.16529866890131905688 -0.49927515102686925719 1.401524397844958969 0.47123268325687373004 -0.19680129916812097446 -0.21524706851348479608 -0.17144012661790827834 0.44305207903868076835 1.2645706437788388765 -0.21507711272761587118 1.4820568207723698873 -3.1138684934098117552 -2.0278346550640455881 -1.2666828920916519685 0.15755935801573098254;-3.9108697362312301316 0.10778464762176051539 -0.0086118096506351722585 -1.294997757190202714 0.41228564063828210262 1.2463370006142990842 0.067242001543155224819 4.9189090357478626458 -0.025356210867662338365 0.46339271478535004611 0.56893068625931919602 0.73622346837140539844 0.015989608490348215797 0.5815294088378888393 0.56865308676569070734 1.5280797672602184356 0.024113723022673488189 0.10437022007365102938 -0.58251178889996302335 3.3500420475724848046;-1.1705596599904042332 -0.0029239863891570008411 -0.035746975725144451708 0.98748130255705612868 -0.2477024877728946084 -1.53213439346137692 0.0073289465641127289966 1.5313455264367858977 4.6337601789257574225 0.59101452138435428552 -0.36581082828615668623 -3.5356903367596954624 -0.1655653336762688832 -0.12956596647599688543 -0.3656080475573034172 2.1027049952979099956 -0.012754804003520844868 -0.078160237856015113422 0.12968880658477535683 1.499894105305290104];

% Layer 4
b4 = [-6.5869088430951574509;0.94742963319536643851;1.6421688350409326951;-1.5320645459439385938;0.45859936516924615368;-0.45063088336508605458;-3.6921696084340123178;0.4394541321134043943;3.0636316529319311819;-1.154133469760319386;2.7236572563417245085;0.28598414703176922025;-2.3876784050624650924;-1.9765462263778752483;-2.3918735661274155291;-0.88675932797898271431;-4.9679479133860251494;-3.4836084779786120613;-0.82368277149836144346;0.81954285752687239253];
LW4_3 = [2.1983425449918487793 -1.419164232737594844 -0.90981116222672719918 -1.2263389468748502331 -0.13825756836412880779 0.22782303233654338515 -1.4224881773376754079 -1.1450496314009908083 -3.4709872854439138834 -0.10081821567222165603 -2.5481419674076768445 0.82718987903409590956 0.30711092703111642077 1.8013835409014318234 0.51506066599399591421 2.1492974164989400165 -3.5610927290274907442 2.6708383332523739639 -0.92818176327910983936 -0.6402406132403255512;2.8359122056342105367 -1.0467002930062803134 -0.73564940587334959332 -0.99073267294527156412 -0.61229999525943745731 -0.38057853934614094271 -0.17881976901566604132 -1.6619797788323460441 -2.0053469961161893842 -0.93211968803242384318 -0.24324445928252627636 0.33576606182324908456 0.19116956998363057729 1.281160455927711439 -4.0668982432888629575 -0.42424501416856824632 -1.6922391001573930946 1.1056026850715894305 0.6335319368267489093 1.1067641984421394685;-0.65033667133812411709 1.0308680480416330116 0.17943699443269137128 1.6150310800654257282 1.7941138855892493353 2.6626958011703654172 -3.1515604657973002034 1.7611605771906806428 3.2406143906340685312 -1.0056260691242115968 1.6911700268158018634 1.1538514191710151913 -0.24198212879234579087 -1.1496262453832817307 3.4507911992888913311 -3.6774021928364630796 0.086831017967338969266 -1.916424176924993894 -0.74376406063312616723 0.35518077519553642452;0.92141451838663968044 -0.60228933711005983032 -0.08197571749872485658 -0.93914717491685717476 -0.14980708954713128911 0.42693353448899179492 0.19612048572700604976 -1.0796732473942436403 0.12700583467765080847 1.0312185075690620817 -0.25635715670779418707 -1.5363220178428556029 -0.0069940175845666164092 -0.28804788843979567403 -0.83036885061874377012 -0.07824243411423152661 -0.1868777584904514899 0.50860581615488742457 1.1772657534238830657 0.24821430351229500921;-1.2054190663497870162 1.2339408923368231363 0.26060023833625689527 0.70935445042359190904 0.87903119170843924124 0.35600046417160829959 0.23108567291188861215 1.4082638696730755967 2.4863215480896734277 0.017122743491671893468 1.9603138566784783503 0.039106026542219493591 -0.33335592802545210844 -0.59553998618614234495 3.1567486893706324658 -1.0819728040782246037 1.0798219505993269518 -1.9496426855520971877 0.86905389921068731951 0.63392567481903594473;-0.59417749544968045949 -1.5978537623414508229 -1.1254388879317511751 -1.3943078770606016636 1.856408562914121374 1.5475013323102879692 1.0448915026108116511 0.49317510802248121227 -2.7705562699209105304 -0.28184599130514897958 -0.40555156599118014071 -1.5974246881694413869 0.12640586953397378589 1.2884967805963740695 -0.53788805388070859426 -1.1879645500581985651 -1.8819640083684383569 -0.58955184974138974408 0.44003985192020106387 1.3196392069125983948;3.573664555806040255 -0.66746652437909592681 -0.039015299496994185202 -0.86699293132293731023 -0.35794370519736901093 -0.58169618406704537428 0.73140948246685044687 -0.92977089797434930851 -2.0567975485157194981 0.75263496120661554922 -2.0674702727582157102 -1.5727237236476685478 0.36588121227209746689 0.38086950870353281084 0.80048685024876276017 1.1933016753531864307 -0.89242223022110056529 4.23026961609205987 -0.86780677433168329493 -0.73526604388021254977;1.7728664215857845576 -1.4781092825059785056 -0.21602052337097821244 -1.0900198788832629049 0.49668199453303635282 0.62634976625795368843 0.66766873829618755831 -0.60070628574775142283 -2.4105025593826896468 -0.56487185191240474325 -1.2148904631954144939 0.075673630171183337012 0.40345050225944684152 -0.47034273270788051757 -3.2386324340252707898 -1.4907191785297733144 -0.18358326213506645508 1.9766529464188515863 -0.42728528062611925709 0.3242202821670039925;-1.6876433098219898454 1.1235952711983256957 1.0400918267685608232 1.0750266597399544821 -0.10219112721149538336 -0.32933602481820467567 0.10653220357506000548 0.881351628790988606 2.0867210250337087096 0.41269343992297574664 -0.80517832524118315707 1.3871626540722812315 0.2477404585734794551 -2.7914129255336375124 0.46890728259683617241 -1.548311246543168318 2.2706983895443433319 0.6351142069806813284 -0.92881126089562660031 -2.6639229455231019372;0.43630756239584839173 -0.54491724447554612532 -0.64483722148398081586 -0.89830523980451315591 -0.74563007205713427439 -0.66661253330133729555 -0.29815376903415252707 -1.3291326559585430189 -1.0252360215424507484 0.23066373568409592743 0.91567884470747673564 -2.4619069014213712521 -0.33911186557536465713 1.6696453916556950325 1.8343718195967124718 1.5992714345958647382 -2.1178839003100482508 1.5156839208268946262 1.1204620862409679916 1.4478718169319639841;-1.4136315544729614047 0.79989758512515551914 2.3669853806910703398 1.4022788677702175963 -2.9194539555221865612 -1.1874585151088243862 -0.68582434488541543782 -0.63474606962417978728 0.78586891530338420786 2.0362737598507680836 -1.666368263905668945 1.7467250096560253958 0.40024450939647815417 -0.62707708950525664626 1.6608528189897544536 -1.1035650850389500111 2.896465418618042964 -0.21229270300092498158 -0.51544413461716909186 -3.5199833501740216413;-0.14439569343769312337 1.9852195183416498914 0.44698438262508177754 1.2409586169850972404 -0.38136007566081941977 0.14282635232452295382 -1.1324681448909665882 0.40953195573190709355 2.8887687499202137076 0.17845872216653085873 1.6954392015152872641 1.9486018106125191363 -0.20416841347304728882 -0.70532210359389990728 -0.66903640070793901629 0.60665394733974420394 1.7973848834840171484 -2.0762779063090586185 1.2924224990209549624 0.48403368763097048832;0.82223164492747191634 -1.3854032757386338659 1.9386559437571559972 -1.2283451493302506297 1.4304125198010018138 0.6378315418863048647 1.6040675729808349104 -0.062464446581572928563 -0.51437303414234991639 -1.269335938188717483 -1.9000052910647782234 -1.3146525638601358477 0.68002511039817192806 -0.57810797854207895963 -0.33137247092810279137 1.0640684157398392351 -0.29009214520860460151 2.3301389788297934835 -2.0926251328457654566 0.29865106034816785163;2.0411003799552469573 3.372104857394012889 -0.31959465657851843234 0.17721907864845923286 -3.2057624319349500297 -5.5033188454678798607 -0.61869050846240691843 -3.4797195609356177393 -2.3581813385360059776 -0.67847773731055061042 -1.6577450899267187623 -0.43018000563282737803 0.31176897510929157953 1.5880825012596084811 -1.3362069068303081831 1.1357538930604811345 -1.1338931566073173762 0.81087684413444727216 -0.61347762898795532571 -0.24967847649547081357;-0.39868159776047690235 -1.1806558726060289999 -0.41149064161137888229 -0.89206926443795975246 -0.64127020655106392599 0.05857070409775513159 -0.8403762107041383711 -1.0252269264079807432 -2.7092602041992761563 -0.033138282639673374841 -2.1497295651612549072 -1.2005557971889957436 0.32740596758232676233 0.97416587595838421976 -0.73864819008571058756 1.2732683711584571462 -1.659534495006237842 0.75830696145505593897 -1.0052842031086000052 -0.65671024501481922719;1.7357454475374052283 0.018423099005173866616 -0.44703104615953098699 3.6570284400462802488 -1.0879816773185180256 -2.2028825476933193706 0.015288638486880388664 1.8610390097350062444 -3.3356554653519374654 -0.5418844230095440917 -2.1151597769963315088 -1.0358273536943098936 0.21707570680236434879 1.3077213558079439082 -1.1349643531377062722 0.84152987544135593456 -1.3468232757715394854 0.50250817438892014799 -1.6060099706815014198 -0.43198916763511041594;1.4452572634724452083 -3.3982823742973731207 -0.82048075744521065111 -3.4357737335681934887 0.42240434188291736683 -0.39650205628366202992 -0.88654894539602013825 -0.98940337779733600332 -3.3894133625641815755 0.15570235208394028747 -2.5979830957432610283 1.7924923088647217728 0.33643510760740352739 1.4526025254481318427 -1.2523034675823609962 1.318131014968740633 -3.5486321514010397138 1.6078824449583104528 -0.88404345887723989605 -0.7818666210806640704;1.9825031019600680704 1.6522761517901505268 -0.51764579919831077426 -1.904301636995507252 1.1292008078175215235 -0.29380756088661663661 1.1504064802530633571 -0.71587446284355649162 -4.1838856855016377523 1.2092417392006098442 -3.2268237822877585685 -1.8445726198600400636 0.42113808445417694193 0.55812394597541770125 -1.2840552837657994711 1.3886258622983591593 -1.9554560982735638142 6.3129731364723529197 -1.2549975927211032278 -1.0641903244097956627;1.4920608955442955512 0.41709923011066374343 0.56109025495727604671 0.90754586333280351518 0.10333030057073251673 0.2994563839297317287 1.1100147635135779733 0.17424658134516815555 -0.22359555392621380254 -0.45991884245323205738 0.21274030627317666586 -0.35366938255199281693 -1.4671400228769400087 -1.4245603260972201642 0.2988100084276588686 0.75129280795064667942 0.73167450955601920359 -0.26399479998243052803 0.39303850241188337256 -0.3069957507239986505;3.3218253930521020045 2.0713208872902448832 1.1238318771278204 0.9007225648417502839 -0.37392409997093384311 0.17488465784446535767 -1.5334240675667694109 -0.15566083385430895536 3.9464777698556323671 -0.69852413214537667496 2.6794391334481657552 0.12670928146354915045 -0.17141346546730912292 -2.848738522480040114 0.99419292919083623872 -1.84590110742942759 4.1865415330499642366 1.0641564012257227478 1.3605915846919560686 0.27012200978753297953];

% Layer 5
b5 = 1.2582711850661734143;
LW5_4 = [6.5558194485052494471 2.3980723309272686805 3.052985627793121548 -0.83821057155611555789 -6.0807775258359884063 2.7935342882407039333 7.2221379599460915344 -5.329025294727754769 5.2939521596346814647 2.4168532315183082204 7.960115465646111943 3.0462379186208861093 1.2194808190373871426 -3.0429630733765056227 -5.253716569159309735 -2.4187946852075556947 -1.5318305132280001235 7.6415110110843231794 -9.1897978375940828338e-05 -2.6976464218305680198];
              
        case 2
% ===== NEURAL NETWORK CONSTANTS =====

% Layer 1
b1 = [-2.3319673636120725746;5.9350247894591046105;-1.7844898673905118525;-0.46480665261605585981;-0.6936103221335850888;-0.8442970545356320855;-1.1390751757003261257;-0.0016859305927420878152];
IW1_1 = [0.028518291056376779413;0.027777781640093673898;0.00064010162003334705565;-0.0034637418044359807173;0.00017497432984255300572;0.0011128078072721438261;-0.00080714549933423444025;0.027968696694081401216];
IW1_2 = [2.3603564819774298655;-6.1462984207016964078;2.6064998029356667431;0.47523567831536434047;-0.64355683956407971902;0.51114569098027751171;-0.23858369461307094017;0.082042298975703933928];
IW1_3 = [2.2895500041251417578;7.5937118728663017819;0.87778575369907774206;0.33673919014319270149;3.4864592599748247537;1.0417118523456430079;0.71634338219052551278;0.0070030534432488824453];
IW1_4 = [-0.00016148984764055831424;0.00038779467193561653008;0.32396639641739921611;4.0946585718552371707e-05;-0.58466101089261612866;-0.00011060517788831616742;-0.9054662994624096406;-0.00019247817720588966065];
IW1_5 = [0.0001884080028254286822;-0.13139454807944569992;-2.6935952994586369208e-06;0.00021800127455147411386;0.00022711965134922715011;-0.00143987917160255381;-5.09700609654049536e-05;0.00016075991828976311511];
IW1_6 = [-0.01314185600414716909;0.007735924168072149873;-2.1146596283014799646e-05;0.0011627494609200356764;-0.0019619937117089686525;0.00054616335606029583951;-0.00034424163284328213128;0.010428554945635899048];
IW1_7 = [0.090630710514002746359;0.056176503873609590078;0.009492214758192014934;0.37322238059028683965;-0.031437424988859673236;0.08367780393683213469;0.0061459680670929266177;0.072647010432316139195];
IW1_8 = [7.2974925264908768155e-05;0.00055690470290897884503;0.64848056347935967292;-5.2269990865100761704e-05;1.1850512625959959134;0.00012363717344598769746;1.8043596583447145676;0.00014197353065901940276];

% Layer 2
b2 = [3.0258941818460667328;-3.1392732878111813122;2.6363527918723841381;-1.7366769079656176888;-2.4841585864675947981;-4.0973235126915552584;-1.9431543841355389812;-2.4453981827681965378;-0.3848326624402109708;-2.5238674869024988467;2.8964559818625783549;0.14317502908526719141;4.7686667961278201844;0.20803959658187728965;4.8691847615813195205;-1.5461197001929969375;0.42384304064336458806;-0.32416990970928594162;2.7482398745477087942;6.4958293009313061717];
LW2_1 = [-0.70208012595863422689 -0.0036459178071426355354 -0.30227328820832727319 -6.5767364073246117329 0.88172452176625415454 -1.0276692269387297518 -1.0248630328157652958 -0.35383467776201532606;7.9922463604496378764 -0.19135141446849290858 0.98370732164978202938 -0.70316942251264225039 -2.0537033034686658084 0.12590873958206591499 0.25634470129650299697 -6.6933099605723658243;-0.84656855636814754007 0.0064171493462021099788 -0.32700398455565365952 -7.6350212991091215287 1.0446736848958979582 -1.2638963674072414278 -1.374900813025923263 -0.36244664698368539435;0.57954992311773168012 0.078878614392296472757 1.2852576995140980731 0.16166700779412587763 -1.513666320971315038 0.02725821305609606171 1.3631365254430216627 -0.66044683166118212103;0.04137379694834718985 0.027940888033242867322 -3.8760928928942290916 0.0092434639496517465029 0.028861855763894262578 0.044984036726537349193 0.68820901865521422192 0.029826667749126574425;0.6820783828081083966 -0.1380177343281209501 2.4168082847349872111 0.077637588450237646209 -3.3450284874302407268 0.056987886790447590812 1.7936055935485815116 -0.16879979666257652338;0.0044311131735198976481 0.037820256590276789266 0.035214846243686932781 0.01184343202403241764 0.75531920497582605289 -0.062054123853538784017 -1.7246211292476476551 -0.0079816474881377764278;0.31691174784792885966 0.30628806460437596471 2.4300960770582156201 -0.10258524930573281742 -6.7412230517105413696 -0.17628638269805685379 4.4379941648771508156 -0.099050632648835568173;-6.199519118239038562 0.037213946472602642268 0.017203248092525554036 3.2967414892719109076 0.14153578729550861381 -1.3121930284213614293 -0.28008518562037615363 -7.8139570432888421081;0.21961603512191107956 -0.0390968078776458422 -2.41870943850827258 0.010282279763922819171 -1.9749149813860737979 -0.10168053712254651599 -1.7159469560632900631 -0.054925610135589719718;-0.63016930669253701236 -0.00025196229519812592384 -0.010040144937838214184 -5.947794375437669423 0.0031382874054580196105 -1.0030760439531871686 0.16301418778183718317 -0.21264774109177544958;-0.051544046284744994557 -0.0081314020229185362404 0.84065973844978914009 0.002215060285514377364 1.1846241161027633026 -0.010103229976461363185 -0.015063057694860017971 -0.022467592309298616005;-0.13808642785582722623 0.051853008378547872648 -3.3017448367964061795 0.018308084165683559397 1.803807201629956225 0.1909609793738595851 0.5057843148387619614 0.1524186362907692105;-7.8000135920610702556 0.0038400365276976705133 -0.0065470824166628830906 0.38920565011346019979 0.043551442463608994182 -0.12438988482439457262 -0.065680179948146136248 7.7985795080919189104;0.028331504726281295931 -0.012444123633722874167 -0.37502577499287498286 0.050288005147959308205 0.58457431856222630273 -0.034380964301006469719 5.2570863314080309436 0.0896574869237723171;-0.46144077303442448956 0.021458199803028727565 -0.0073167632205698518791 -5.0700026543298868376 0.0001064810616064311644 -0.95045729741775386579 0.060436282368581902003 0.13291547810249532136;0.24986857911321913583 3.046344488447116472 0.0039155084265744249244 3.2086964239974027358 0.043955751001661179378 -16.315210269235599583 -0.24691241032501032304 0.90363158126561182737;0.58609825925125413892 -0.049939846756330320832 -0.030430182596657719823 -0.50387521431015191986 -0.043060373460699880033 0.34972161369268833786 0.082567107140838744139 1.9190004404876528366;-0.48355775427293956614 3.3948826678454380179 -0.65967397869405774991 -0.54114763505522467391 4.902347022911177632 1.7381771379654380461 -3.3530678097065096388 -2.8348580015380160368;-0.6049016543087745168 0.27568328659033580763 -1.3108435329339620523 -0.43345472500826343065 5.899646052342914615 -0.10901955828931636505 -0.77034331881189621605 0.11361875025043385867];

% Layer 3
b3 = [-2.5878198736309623307;1.1155653127946132397;0.32338111251507239974;-0.93544456870361647471;2.7734282488067534267;0.41995631962237772727;-0.64090755984853653437;1.4074192575037292041;3.7434368368444594921;-1.244063835022374942;-1.7610943131292409181;1.4658785495373196639;-0.28343715925011730983;0.52241661469016564823;0.46586227133863811201;2.7351516442507519677;0.56491924143783489587;0.97352859946501202337;-0.7432710323362924365;-1.7940349469203635824];
LW3_2 = [0.23610792752906964442 0.20428731952258158411 0.025545180115800144444 -0.9088668177218952593 -0.26599264050133586412 -0.080837433955062223956 1.2898333744566967685 0.31507037770135459809 -0.094706265022648825069 -0.32956837005448075262 0.63815782162735046334 -2.0302731636582005414 -0.033701384835700017029 0.15641215513352907385 0.28406571301045369093 -0.48216494675643334356 -0.099281312085672063228 0.1075012046967786794 0.12997843893930127734 -1.0295155767386421353;-0.63064168588035707241 0.48339359791796199239 -0.11302991417691675424 0.90393715518043360468 1.1713290794677080342 -1.3215624008180721916 0.099529437753424182533 0.66898735586469892933 0.2125215837388326201 -1.0924369798418249733 0.35644215983321259067 -0.057272760480000531325 -0.84668525575087050239 0.32313975518171239587 -0.32605156071117380456 -0.40534230995651149287 -0.028578171278030233687 -0.07548248723253932202 0.52431445317251712535 -0.01942589402172121768;0.29674006487205878413 -1.288303498704319594 -0.31752930238985827005 1.6088659585904589999 -0.015001653797066659413 0.5936372344411383617 -0.0059509968336222702351 -0.59825162292910261108 -1.0306353139199349034 0.09447681148016730257 0.24460224006632427796 0.27950201556484288723 1.0082237303055019417 -1.4434093383763526575 -0.026012877472160082087 0.10727333380384986017 0.7723507222773242642 1.0597606184071972635 -0.7038174319822608771 0.28227546817225762643;1.0725269074860919183 1.3542653430593110109 -0.4918461001053451298 -0.095548694531118569251 -0.12852480954761949516 -0.98187322812339850042 -0.04491803987500917611 -0.30797072254991497697 -1.6706804999835911385 0.082329727243731720687 0.55780077648496007026 0.2635513202692459922 -0.77245813061582424552 -2.0128550141650238814 0.0095376095437161561436 -0.24947656171831658622 0.73708909241574338544 1.5344687868467838943 0.89061783630780955168 -0.11474877097165313289;-0.44997118530945917625 -0.12298479464647579795 0.17953681959879763674 -0.29379599737551126415 -0.84714952503245233295 0.33244394303352636788 -1.335262944518903927 -2.2765304801135526347 0.04725621837588574875 3.1011889835346884148 1.1582283628430225519 2.7540819125158089165 0.049865977542291960167 0.085548853369065216978 2.9232556775668405713 -0.95900966155854983075 -0.66831627282306305116 -0.00024714277394797883828 -0.50616602905954266589 -0.34509490739958365024;0.34733467942246920579 -0.018271292771692652229 -0.31048728186031254728 -0.80796403128925198267 0.17644706715008112718 0.67498319309406007438 -0.37521305785437780722 0.22417992766488892276 3.6382343637032432682 -0.075549930258247716131 -0.18490394416533104116 -0.0048767483325353718285 0.33684462592299124761 5.7039152546264597632 -0.040448442331610628964 -0.07841230206437439787 0.0050893927826256412511 -0.55204123529984350238 0.14131486128561246418 0.36799438507315584967;0.50271430235010794441 0.64759671210029279287 -1.09308700736230624 0.49268607317766371922 -0.44939870555937944108 -0.58958042116567888069 -1.2585743337359420746 -0.0081627636054433013596 -0.26305763384440783437 -0.02016221578339004103 -0.45422151263617582817 0.27728202655174860602 0.8289964079950307152 -0.71625038891281889164 0.24865353091470690505 -0.091021024131542116464 13.993904161413164289 -0.62254156499469193164 -0.54675720883967227071 -0.94124503237155887625;1.2571209858337155651 -0.068330405847449482426 -0.6062557932367994562 -0.6186166102566980074 -0.026228883401658270591 -0.90914127213607676126 -0.033220932243371137371 -0.14829963611538665713 -0.008312663136686319898 0.030909667591608271098 -2.3394974079544526013 0.28659307708569453643 -1.1172664768287434711 0.0027695188532073883141 -0.056622642316459477485 1.2243743555592718764 -0.046568804464946080002 -0.11154442589295714139 1.5059377855706066462 -1.1275829469416049911;-2.1680779500932101378 -0.57758097184512080524 1.1144823778879051623 1.6414042626772236133 4.8133931799332634327 -1.0016145292889833129 -2.5657261769247923233 -0.83597714507754083968 0.11277942555517246614 1.1545897498545218962 -0.026654357193172772966 3.4312546541798378819 0.59049404815420969417 -0.058716723494886192969 -0.20940513358379661546 -0.24356101500929391857 0.17744643006475738223 0.10541320364979042679 -2.112281371841124411 -0.95528327201751206399;-0.30928598336913964983 0.058301005105510401993 0.29355717861512015121 0.30895077286115918414 -0.8213935056677654778 1.3044261980299367565 -0.21299425755820663997 3.8031215369329571807 -0.098878728528388276642 -0.4325622421916063276 0.0029172562205845424012 -0.060719527136646606058 1.4950368122863653131 0.010836236770509969154 -1.4790181181602124472 -0.024090343016945105215 0.089309432342074557276 0.036528463907187634641 3.5598448956332142679 1.1279549267873740792;-3.6292688571651114948 0.1836832975933278822 0.6520037639491396142 0.29063347175120640697 -0.0035405447843901045879 0.22095163096367104183 0.077912787375704312121 -0.037538110981032463132 -0.10459007681749182828 -0.0059838053468456537873 0.43997071491689615508 -0.085487891325951650967 0.49063543408071608187 -0.010623616408401051481 0.020178906083099957397 -5.3346679849095099968 0.053185025964641551022 0.18007087966352519626 0.041909858507369369962 0.61202532881699722722;1.0625685766900008211 0.27038486687005358622 -0.63848552028256666535 0.15129590544652760098 -0.20706468685332443669 0.095058149095291241681 -0.2653196892602822099 0.29485984003822973687 0.08372029112452793187 0.17725869956080600454 -0.6572356392230868094 0.11685164793027953689 0.60139558575586848921 0.098327352895620931394 0.2480531165763779633 0.55530390813532226613 -0.018976403843027591506 -0.17613747339425916971 -0.73757503132856516714 0.33960190419135044548;-1.2121706676177415041 0.5673452343576625978 0.16800452769837911915 0.36897396589567693637 -2.2560366054355438514 -1.9037179976565197226 -0.54660438470097660879 0.24764635938357801304 -3.1856812759247441491 0.12892663222630473818 1.179401887292361284 1.6065394514387993929 -0.67895087101762408022 -0.023706161645938556015 0.58795682839153451393 1.3286323905798460565 -2.5376835348351991506 1.0220886570907934399 1.3020641926688814038 -1.0212377972556685446;0.073938581533631669851 0.49908374018051010479 -0.031829652586608067621 -0.59327924277297705569 0.28009682615232228686 -0.36212170914102209673 -0.27776672322375856039 0.42939888746080606685 -0.13264275061511032749 -0.38859037729368250957 -0.15775741862265860171 -0.13262489486534617678 -0.13684837286312104276 0.95586977795963956606 -0.096438943845397473442 0.0079093627365891400194 -0.075851177277461753756 -0.077690178399763998307 -0.087512497104458603081 0.66395896601923054536;-3.0706984675109647576 0.36334764128007185358 1.393855763138447168 -0.55638046189136891595 0.0072227567058389457663 1.1695357107728063806 -0.84502305432092839066 0.23195842914852016214 -0.6993603510784223154 0.092118774057185104365 -1.0135895747392178468 0.6141889017415037566 1.3150336162035569654 -0.30430064864418671089 -0.44839851065413732778 0.76040949813586555806 3.301347365827419722 0.057216441268098078288 1.254533248588255212 0.7263947690939975832;1.0181461552029904549 -0.068350011509809155408 -0.36776935663342913418 -0.44311481557761661643 0.12601256741003780126 0.47264987272167952037 -0.0086850734826871712341 0.13171672625717550931 2.2024997151380580895 -0.14819466954314772233 -0.022350791804150376557 -0.18532974169306476453 0.17526969932989011625 -0.35728947301975533257 -0.0020310854805583129432 0.15683049018239028638 0.017950951396028737295 -0.4662798050232401792 -0.2655737246591945433 0.20178894279096556974;0.29228957349893863737 0.48371701207983630599 0.76453707096393819231 -0.33813335340690009456 0.31314181429751719588 0.12906497659781424048 -1.007617698334045242 1.4795508326346922257 -0.06731054362253896528 -0.72198308550228629255 -0.11222882114749926918 -0.15174428809392154216 1.9037413743840445601 0.01660731636246829887 -1.5099712548831862868 -0.051360019880996400643 0.055433913884118460325 0.062466274472563802778 -0.71794506086319553884 -0.20622279970940593508;-0.19317471595978880083 0.44733938010749690894 1.0997126390744307312 -2.0502663940986249891 0.36520210391123197891 3.0147549065585712569 -0.62503704914194924136 1.3935925932186201681 0.14366199598182571862 -0.79222930372742506044 -3.9603652108847180457 0.34195108807666452222 -1.601574511572692705 0.023937465687971930944 0.39888846433255964463 -1.4226392944034362831 0.023624925522767376007 -0.19783952373204780062 0.10463250956853871465 2.7891520921403953892;0.61846543327895187048 -2.3571239858759804875 0.016594952956312872261 -0.25043858911884114837 -0.090777292636249298785 -0.087250755363886808857 -0.29932648003574091611 0.1637198636192074841 7.9354703414572806963 -0.42816956034844488865 -0.035834417787208160122 -0.65450915572664458697 -0.84022621073802916669 2.0229688056812116237 0.12245890456780987587 -0.90458776670443108436 0.014885440823250674011 -3.1606275172415463359 1.5298468255421571182 -0.58413244483572901444;-0.49259617533099592235 -0.26747735283240337001 0.60501524265053885365 0.095343699403520165703 -0.56423328743187384227 -0.49056883360542097305 -0.18558735662545952638 -0.31186950554273407121 -0.0035359102275410564907 0.095629146622993849158 0.23008870966875580311 0.60834274569597079907 -0.33714913425806508629 0.017629882637471241957 -0.036765743006194340214 -0.28677885400852898279 -0.019271389164257385351 0.0091714001950460831425 0.061845131129421887506 -0.74929243813808577013];

% Layer 4
b4 = [1.7401830292583118087;-0.97833541820320668592;-1.110936023277837581;0.064755641610434067079;-1.9500097807333829358;3.7574971339306824092;-0.017417712613919843906;1.5418182055258595753;-1.6745421672166942439;0.51954285003495159767;-0.49585345994294988126;-0.18253886197998192564;1.5752308147591829179;1.2677147004042943479;0.75362867500736230308;-2.7264972802569635846;-2.8984264367781928939;0.48148170321149080797;2.2048893952820933784;3.3770165860041165828];
LW4_3 = [-0.89406996221272050374 1.2936275222535229545 -0.12372810605845124821 -0.25899703246150274083 2.0249023123663314472 -0.71549651424450866344 0.79863393584703057382 0.17232994266803311478 1.7786962986688914512 -0.91549802599348217846 1.0325460353893740617 -0.44631982838603667663 -0.2708095261657389452 0.44037785238931459464 1.1781402877816948838 0.066726630344683138252 0.39703761793915132161 0.14599623029971661725 0.23072376672809388753 -2.1514912216971522341;1.1989438057492940448 1.2331628881807723541 1.5202687213130638977 -0.49572783832911049284 -2.0677610360789469013 0.34851594374834149459 -0.81656325517586081375 2.5211106532411546866 -2.4082488743263787967 1.6335923426386651514 -1.4761576960160081029 -0.25591908206986102581 0.085872620670271543331 0.55689425602690767469 -0.078394157739205563851 -1.3340513017644650695 -2.1936709093722730479 -0.48876462405270565403 -0.061822583846322783085 0.12443713136077620696;0.22365833576708640806 -0.6359899147795975427 -0.25266197916452270977 0.43126825166993193461 -1.8764774953133134261 0.91867674522082243271 -0.45445165124783515331 -0.31983281777259708889 0.94232018269150619183 0.34895885359259282144 0.65018634428481436593 -1.7586532316215692795 0.39252635884809211619 0.55219605884940903273 -1.5259681050601991981 -1.3293792943730211586 0.81773240714477124502 -0.37765594536179614149 -0.20559579341559350296 0.86245298965576278061;1.2520072172432386015 1.1071110302304723039 0.4430110528147441773 0.35971847181076416211 -1.0745476057841043538 0.48474712754711168916 -0.95923863555985111606 -0.57689183160462820243 0.59227427650123287695 0.73860833938794723252 0.76963567944599620141 -0.88123079628731371127 0.16189367042846788958 -0.2290210477121136512 -1.670816417103325735 -1.247736871856745422 1.2275037772322254792 -0.44825551489908171954 -0.151317900741587269 0.74396224368668628646;1.4064673973191748058 -0.38215741688074394977 0.71312389480631788174 -0.26376832091414914583 -1.9145185942731073325 0.57019854622587573534 -0.56179281276338111084 2.2839433849507377872 -3.0753061390023108679 0.89066270035652206349 -1.855981357099240725 1.7684225208729360546 0.057214518793578687805 -1.294698683993705135 0.063243635143790569164 -1.6604872312351066643 -0.6484762711937129831 -0.95225992421090532858 0.003194877599130379036 -1.6206070900744833363;-2.7462468512154192268 0.29997710401264909841 -0.66274367761667651866 0.44511829942742237032 0.98924222985313470247 -0.70389005632416423719 -0.21768230361791821026 2.044509931928503832 3.7985058872724715151 -1.409432037824869699 -2.0187358611981878198 -0.62205556289933627845 0.011144060282052186198 2.3639229637831991049 0.12792096992533710798 1.2618146040235895811 0.55672821420097096112 0.82020004333597373858 0.10252194882416247601 -1.7089148590235510028;0.73569774705436652429 0.96566571306918635997 0.26019536784589897271 0.37843057469191637709 -1.0817650765950788116 0.33998317114329940081 -0.93883231693672009044 -0.92582863908138612885 0.86408588392684171353 0.94872779320964262251 0.9741464213520482085 -0.32848597804794654742 0.24155278026857063267 -0.82777814280701522698 -1.848472691360538489 -1.2490193845868629019 1.64102543399541001 -0.52673106502489530634 -0.17534016838469065891 1.537985907974399602;-0.80843962962530124816 0.14616062250026598535 0.56392537252364505207 -0.40496411363858592081 0.70214269693905828618 -0.68204709368644600431 0.56241025393414767475 1.346361383893709851 1.272236065437028385 -0.19951756573483714341 -1.2426533672491839599 -0.26006369239513243974 -1.0172586309549160877 1.6889417128848827065 0.20936498762266508855 1.1585845180941356514 0.024540699049200819654 0.41178081216489526017 0.04570833919195426559 -1.1621219840316339145;-0.060085676389375661244 1.0896484794953136266 -2.0527849779600000346 1.7965132387040405604 -0.90428831250528263208 0.39346581512606487729 -0.53531441755986008957 -0.67618896065799727335 -2.5329532901216089691 1.0645175725319471205 1.1052936476020314149 -0.25803075746383263844 0.41979150071390591847 -1.911793156817529038 -0.3078955027075058748 -1.5500427250483275188 -1.2872039121413934026 -0.64738998790607327205 0.00089415719278710488124 1.3120294637288367756;-1.425198469477515939 0.45466344111234335834 -0.64279156298920148149 0.57041733010745598875 -0.99227626934814572301 -0.75425229011611505392 -0.18211392794809949658 -2.3239593675187144584 1.7810582624272046637 -1.1120040737603040792 1.2026763768203940774 3.1574743949791970188 0.35029926292397012277 0.14038681380934689424 0.20016806958921656845 1.1233262656428784076 1.3875953868999506557 -0.64103876468601006522 0.087629094774152455072 -0.57714887405929282682;-0.0031287069682557162517 1.123348809193432718 0.20744309747617514783 0.37685289619401080019 -1.1093443340054156554 0.20504980727548577368 -0.54894675047773588972 -0.99634280667473784643 0.4526420158026984164 1.064778177421189076 1.1896928983320782525 1.1306532016847188338 0.19871108190082256706 0.146678527147537624 -1.8196494653774000216 -1.4850788561447654246 0.18275801525726254049 -0.72526172818333889403 -0.19800217691582622237 3.4913374996753381296;-1.191800056876541003 -1.5761390253940135153 -0.33226260182209416127 -0.16966690060109781979 1.1180294935988994709 -0.34174746754056428699 0.66071588173359607765 0.63978517641010834716 1.6277548610696690456 -0.68512276669626237524 -0.91660765673231481276 0.26458707631059419363 0.057635407506708334624 1.1531372756851632211 0.79874074727109101168 0.88826490106257882662 0.79883361275087227948 0.48689873987107418207 0.147956221456977427 -3.2595465858718140062;-1.9190174913605302365 -0.78148585655848168408 1.5276102614836399862 -1.3573056269806855756 1.0357259436635206651 -1.1743616595859143192 1.1480294393240764173 0.39504182499147877383 1.2307551426454932386 -1.7725965752544030618 -1.7486496929050396876 2.20820443558443813 3.937566347165262215 1.1842103769133167646 1.5283492301854944007 -0.16574186085927417045 0.75561614647586738958 -0.060115697255456200521 -0.12889543775847847606 -1.3404391950935050648;-1.791403127489302971 -2.22363744538664454 -0.32879761526545808747 0.28171554388780167821 3.8462242786575466802 -0.5858946310361391463 0.75642424772677385736 -1.983979253646879215 1.6558423661590768727 -0.90168114441333269138 -0.84984772507815409259 -0.28972169932373859069 0.29058037521828017358 0.22369152479340276285 -0.43837642426604617185 3.4852782191005444723 0.38498123120382504725 0.540087549368926223 0.0011955208038729335431 -1.5867637126045281981;-1.6822806923323265771 -0.18090726548091939918 -0.52954304172847410648 0.52262877903345184016 2.7567427332361997827 -0.73260265853836614713 -0.30125438587990022166 0.50814553835716447239 2.8384879860455174416 -0.79885985847801799231 -1.4426778209585531254 3.3185651011796624132 -0.36621210037049911623 0.54447558526107964205 -0.058467244079178151694 0.65094605297307595038 1.4152180791159394424 0.43436712207410416164 0.11262209762388683543 -2.465776474310509947;1.5478116977120610631 0.88192352463094059178 -1.3418235713073287663 1.0110755176010375322 -1.0557348041169736241 3.0759477115439670669 -1.5358265824249248688 -0.78056918466477132057 -1.4937947355232461533 1.4740006150486888448 1.7024112695990485378 -2.0270924288107594613 -3.658353775048645673 -2.361813059113768265 -1.3767908602285281461 0.81045763321010177993 -1.3074793773323436508 -0.098312028198341061547 -0.12799730138413437097 1.8904542329440481296;-1.5297296530338531095 2.6619335301134050553 2.0091060260486397482 -0.53134643394599534449 0.75224940811408069763 0.18416065569664280543 -1.3607174162131334683 0.23602928783975429816 -2.02616260722466901 2.9954023626288868165 1.3833533975315024378 -1.516746553938458808 0.23488674929887579101 -1.6751329788293505274 -1.4283525583948091242 -1.5491198652606472663 -3.3674408650168485835 2.9543110825095717509 -0.14664690262120258502 2.0297947754491039163;1.3598579640462038487 3.2447305910774995041 2.0888881921364594874 -0.49227103675622529977 -0.54456129265267949613 0.12245193866207430833 -0.96428156296895384259 -0.30974686282915980806 -0.65929544240968340763 3.0909191175510781768 1.0532409575938466162 0.10610792274968992854 0.28081191642999542291 -1.4387189396326034441 -1.584197044003324395 -1.6747910732344111207 -3.7181357733089046569 -0.44099936216204282946 -0.17395137812996394611 2.306299622546328365;-1.1822462027505655779 0.23356994212327597538 1.1000515525652996285 -1.1652411867311323057 0.30950855688994560744 -0.18987760146848542409 0.61188456698141291401 1.2740757324720295429 2.1974156873137742352 -1.6302896825127659586 -1.2677245138653336909 -0.41686680430110589768 0.39492006929120654357 1.3593419995357742813 2.654635815611810834 2.1903441437002313386 0.48343249176492936181 0.16950512840735243447 0.29948699230823089268 0.19026887889965557465;-1.416637204653531823 -0.52075491524104866592 -0.17198805370064396136 -0.49354381771980954108 1.7025398072947783845 0.6975411193931818632 0.11806075482145604594 0.31606797911564910031 1.3590664578631159731 -0.41357344480316504676 -1.3153828907257012482 3.3923292791931740631 0.50968553298769825322 2.136186128196533307 0.4892229890916166557 -5.7109613076230028028 1.1071558291498928561 0.25331547156818279287 2.2438735715021862482 -3.2542286908721020922];

% Layer 5
b5 = 1.0653434908045167351;
LW5_4 = [2.6684698618318170027 -7.1259387546845864847 2.5216835957934828905 -1.4373957456443229308 2.1360553575871370491 4.7519213280292351698 1.9786230185810158577 0.7771068767400229893 4.0986276357228215161 1.6055097771093256309 -0.99019848095635720764 -11.74575534120923237 -2.4543821566147219215 6.2797437917696621312 -10.385326554151864897 -3.4493690437545914129 -4.8396515739336578577 9.7650896324031002393 8.4340313533057091888 1.6607142150548477311];
  
        case 3
% ===== NEURAL NETWORK CONSTANTS =====

% Layer 1
b1 = [-2.564529398784205938;1.7174444489237838951;-2.7122454790424703752;0.35161134999952869951;1.0829345844236792917;1.1984345103458378112;0.043438709230416615303;-1.994768472333965148];
IW1_1 = [0.0090327370889324454933;-0.008080209998249907738;0.032186507588290794168;-0.032014342527499212165;0.0040653870117728094571;-0.013205865976331675887;-0.0038587139807027687199;-0.0039826239780333229715];
IW1_2 = [-2.4147729173995893248;-1.9683998934524655766;2.244573133187833136;0.35902516962214187091;-2.000475639542885542;-1.5416939517300101148;0.22401245480762160822;2.3116209654984465338];
IW1_3 = [2.3279198071156699257;-0.21942991355422927779;2.559324459417061437;0.045075172857317734321;-1.1145155373888522288;0.52305692767856137859;-0.12047294053749930953;-2.8554734715019391977];
IW1_4 = [0.042353878781306086854;-0.0042557943444640157146;0.00076813432086013204436;-0.00076648167303233077658;-0.30505292780824860843;0.00051836966870427172126;-0.036861595454180502707;-0.038423628925594956185];
IW1_5 = [-3.8572845980616916702e-06;3.2150743232408250866e-06;-3.3345109844551403205e-05;3.3183773485988411311e-05;-1.7348235076396554519e-05;1.585999772524678293e-05;0.020073762997423374999;6.6412086084797345485e-09];
IW1_6 = [0.00015319222921328403395;0.13303926866848939103;-0.0001314495501174437397;0.00013100438591767842359;0.00070263730188742888876;0.0012727510661693264456;-0.00021638618300638280526;0.00053419079772843791956];
IW1_7 = [2.9740039229671052292e-05;-0.00033226381898855591448;-0.24414325492693539355;-0.24417203799827380539;-2.0675819327360180235e-05;-0.00014020897500225250158;4.1357584958828741363e-05;-6.287381527062908022e-06];
IW1_8 = [-0.08425914729371961065;0.0083265204053716151966;-0.001192124195414536467;0.0011909643552334401879;-0.60375713674639941431;-0.0014387053693031934699;0.073368635168575557781;0.076566216092339489663];

% Layer 2
b2 = [5.4295315636974272877;-0.32811346659606066556;-1.7979082715618175392;0.76612525922287244562;-8.4427384680450217047;-0.77228034877220885779;4.3930387116622480193;-1.1518677759107260883;1.8080431314358313966;-1.8406719692670650002;-3.0629328552658714457;-2.347609385450668551;-6.3864522153922189673;-1.5678297498701838641;-0.35529998128504042265;9.2647910192353606362;1.5114334511806888361;-1.5225111823929502464;-0.95102503655540293614;0.46984994539463281749];
LW2_1 = [-2.2602571761950449591 -0.0095856417141225586098 0.35104480534094018029 -0.35030309975066215022 5.232973371811636909 1.4306101532960120437 -0.012337062839050288651 0.25306906010427937526;-0.75591557149924859527 4.3526154714354623465 -0.32213182823317576542 0.32126308853312940395 0.23488887351660858727 -3.9897525429972438005 0.0036562409295822183297 -0.48197808334261327268;0.75917887374075843088 0.018220154192036205204 -0.19747999771857741025 0.19915532863131119035 1.5706646128156986908 -0.97820051769031501898 0.11656629883840426143 4.0936442900579299575;-0.29506047210941183101 -0.089785104361898113168 -0.40575757982374427435 0.40506653859217900404 0.35235832739121902835 1.4248300203318715607 0.015828583928025236754 0.024273826034152051062;0.90795270866666433207 6.1464544512900216588 -1.8061081840737363002 1.8034706712329093836 -0.1170106283079990761 0.25876823219283068278 -0.012169480933908495557 -0.35490667697636130162;-3.2931307557695901345 0.024698399605365906062 4.1446047653782649434 -1.9981120662155895662 0.13596804220204522506 -4.9737076761485985443 0.023222677513979338854 -0.019534872566651338699;-1.516594462472031557 -2.2002387661868558766 -0.039316948097147440266 0.038745005282880641551 -0.098869336068385091365 -1.6902002319376778772 0.0054485151004713466491 0.99788153211413110899;-1.8785177877946759306 -0.140953472783303696 0.80800093817984475209 -0.81070743885974938525 -0.22287201041878568208 3.1392376695890726879 -6.6993732222558080025 6.4906154135138427463;-0.27587920638401136619 -0.030195174073881909244 4.304090550060759135 4.2448674306486564589 0.070800611703473126379 0.43209608134264998469 0.00018659207491412589251 0.016196203482482709329;0.27542387275106255951 0.02999731852746288091 4.2120829380567261779 4.3180973846440791064 -0.070574041690549205175 -0.42627385508082193954 -0.00022166611835646829096 -0.016523552442987192446;4.3376244314493757059 0.041746827038854135428 -0.62990434841301634616 0.63316792368005514469 -0.13778410730378551352 -6.9798089693048455118 0.024826300129107532755 10.495582786732830627;1.7706320550643170897 -0.94214668114282207334 -0.5740646660035089166 0.57854375164007321164 -0.1056031791742150644 -6.1125988561376649599 -0.022338534820908837603 0.013345793403488358936;-10.571491680900274801 3.7390323826588844902 1.5314157271220649736 -1.5333990569816062788 0.17647039412850068496 0.24959235781710786828 0.010440715805332050764 -0.34935598211508822608;-3.6608474862082851509 -0.0160628837849671538 0.51639996566286983093 -0.5169038449558074344 0.68504305206934013039 1.0700261734652805057 0.0064874083789255793456 -0.06228129016112411015;0.071457903886981477548 2.8315259987481793402 8.4660028321340341506 -8.4626379030892397992 0.040311626063456638958 2.1898549213425000382 0.065770598889102929729 -1.276066172562078771;4.4780158491262156417 -1.0026811428568056517 -0.19058830476480204119 0.19253231292723868573 0.02736727864876067548 -1.0849985303151121752 6.2071425320614634913 5.1242677455479963555;0.93986076575694721402 -0.004018804330545916112 -0.25925964566037096315 0.25932075879985838629 1.5222554643680537012 -0.74724262810088748488 0.0054674019931160201813 -0.078185791172015156603;-4.4089286663601336969 0.017278716396961175256 2.1409713015845230899 -4.3181766327870949596 0.13391994659633552067 -4.3449551506721073579 0.023030525689587300064 -0.0053528082899623793262;-2.9743751537731450973 -0.29539407407585976939 -2.0474184804002026894 2.0337516046151109528 -0.63158762407181479048 -2.314123537338153902 0.020917951234067377192 1.2542321963115459216;0.098553485897643358649 0.014274588250879086115 -0.28470200039324533581 0.2837254511640679433 3.413346368081576987 -1.1774944784069250048 0.010679422741317825749 -0.078570121672146997494];

% Layer 3
b3 = [-1.5594079599793799762;-0.981008088235541309;0.99476385355175656056;-2.3285659672915177687;-0.66275564730508484956;3.9036031485117863582;1.3628158609343679064;2.5560812446536362863;0.74123287658284198187;-1.7390798394909263713;5.1062296533778468444;0.62497218951928934505;1.0906607103405203674;-1.5971814646659248105;-0.32428388678945851975;-0.16955658296395675899;-1.8746866019473953369;0.35236038514731016225;-0.58264885685676803817;3.822122214613938862];
LW3_2 = [-0.5169973730466396189 0.59878223164414579038 0.22228307545838926762 -0.13054467937113750642 -0.046429437568178778817 -0.65063025376579075587 0.68246960953916502302 -0.88596406215334333467 -4.6205508763448426279 4.7947517791340601434 -0.4372208114571627946 -0.26808959110533731041 -4.2678625507929890404 -2.4541364549728958977 0.073578599043518586043 -0.18708558560529486847 0.98179903004420032708 -0.79975444554124885954 -0.21627592076777188423 -0.19715040298846039923;1.1254538602161991978 1.0885193593419508762 0.035365319819917188926 -0.68215435914423672159 0.68247110342723749099 0.65524903817493618252 -3.1296116482789133606 -0.18873611863374173403 0.40653180516209597162 -0.42505242093686385063 -2.0968823850152298327 0.21730660861430978192 -4.4647468189839161212 -1.4494207364808731064 -0.39966892224639150033 -1.0873274728166408831 0.33543032758701318841 0.63811833501418169234 3.3913584009879667036 -1.5343560937462730198;0.43770784352989294819 -0.74132389821174260458 -1.0993934845594532934 -0.75160055860461350008 0.67811102754363450362 -2.8090445305699622836 1.0871285160082440058 -0.19702332524739799013 -4.659158193276756954 -4.3412359488787739537 0.50201006530005931605 0.21295426186190224982 -0.26225229194029914259 -0.20141545676521907526 0.46622049431186141089 0.1848510499750078695 0.33576384679355403273 0.17334855022698614224 2.9620883671592110886 0.70485357974901363676;0.95954972283668282795 0.34293140304080915737 2.5240504222553483693 -0.57310868678672377552 -0.89279019754341781834 -0.25114294417278876237 -0.3449229800189073103 0.082328265857537025196 2.4003978942130532737 -2.4889190380077064191 2.3428409948236459392 -0.45509893098306564152 -0.63155185350604581274 2.7646915541646479575 -0.29659944740947430386 -0.062820923882534254745 5.2432301403560614972 -0.24946616596567999791 1.9226293082583796323 1.686265970181335172;-0.11344205788675590374 0.91862903567220133283 -1.5219310026493113597 -2.4025949567931350614 -3.3574180903675689969 -1.6152717125628699435 0.25616991384218096295 -0.67250629849430521023 1.9901168769668999836 -2.063422406415201138 0.070075511715344443453 0.47424558154729584691 0.63624066410561352924 2.02201768782580249 -1.6454078043818112231 -8.2288293167847363918 -0.53550688828662529328 -1.5848942473403457853 0.40958905359335062712 -0.14978201111725736316;-0.29045203998810370516 -0.31952059165326512913 -0.43439189643439229949 1.2054650468666341379 0.15964188504123183465 0.15732303127936292375 -0.36682225919339023212 0.78580056298894884748 -0.79421015787820925524 0.82328257018008266233 2.2415137296354257224 -0.35807323788139872045 1.5262794673146475866 2.2753230725534865364 -0.34995370728158486928 0.06244078867533749827 -0.77269038828340941283 0.15424127232172257784 -3.2744703466627749222 -0.075161301674611172285;0.4393450177065911233 -0.74118247262818737209 -1.0791023120616896058 -0.75793305800049792786 0.68249843507578022983 0.14059049113662250297 1.0856098138550489551 -0.19694743600900038727 4.1856663596183665277 4.8405704936641820169 0.49939632694516961076 0.21932224190802968034 -0.26378858637708163526 -0.20030662851964040061 0.46026489011200966139 0.18446869756836595244 0.33538467788261894231 -2.7704253889705552361 2.9495801045106357918 0.70557548193787256174;-0.11777341098830496069 0.93409396288522539287 -2.3706320761309029876 -0.70340195106533920377 0.30539546732779887517 -0.57955785891822864109 -0.38274399038188589017 2.0550710160812624139 -2.1736492210942435221 2.2549959593677026959 -2.4853831473259671014 -1.2639580914436985282 -0.85212737655966241945 0.51852174084374347274 -1.2232078474274685753 0.071588709497678065796 -0.26932558650159826863 -0.56290275743495987726 1.138445795672683003 0.2007159893493771774;0.67636092212646414801 -0.10510086951109234854 2.3798825983677471818 -1.5118316859988694123 -0.1192014280689391581 0.44040279223704625888 -0.19545398461990828864 3.3296074298738034258 2.0135702161980022495 -2.0896255876995364353 -0.89537719124467818332 -0.65042227498982685407 -0.19269399722506946881 -1.8930358175803772003 -0.45821442615417934396 0.088655018464442347792 0.66933959664633280173 0.43187946428077222949 -1.5786113097506844216 0.84810839465725063047;1.4194537917376119918 -0.48324638855452622943 2.0612630748781608503 0.81919963370225801214 -0.23528774350818024153 0.22521859600407512225 -2.6526852167028369678 0.43482601399868248127 -1.1823618902593249214 1.2252627927246757533 -5.6371735141572347771 -0.3588770714412711782 1.8648325924552517918 1.3001724219288754991 1.494513454516376072 0.68080085818537761089 -1.306733680047114321 0.22192631434677076441 -1.6462317687331937677 -2.7311869556028387507;0.018496720609590247553 -4.7220978592616029701 -3.931844831229611259 -0.24187673622014638219 1.3215741479498563926 1.213189319114386544 3.2368936469144813373 1.3234908352870455861 -0.77193185784253204318 0.80353758922771023609 2.1932337307442746344 -0.06376500767562393035 4.8573669143945243931 0.1235855527228772871 5.5680018244362683433 0.18925939808246955431 0.64759296973565838584 1.1932644914959653626 -1.1411998213563330218 0.73955198676428812732;0.56440620378777384136 -0.41171516513784645053 -1.1953179377257727722 0.13121362924325130628 -1.6169504457167858114 0.045890758623559881058 -0.75238279365752624983 0.043390500485989129398 0.21958705491773708451 -0.22519480364354396706 -2.192965747327550563 0.10248250540305045564 1.5695233616263379872 -0.94833226545211835035 0.54462856753633603901 -0.95044925835871019171 -0.73017070860066179971 0.04653308683230862608 2.1114345514978776208 7.9425846825885839664;-0.85083718750352299587 0.21763459955775185661 -0.48344575023658659108 1.043997491575578529 -0.36511798558000746473 1.824606537625784286 0.024578247080819640158 -0.74125071717324153564 1.6956859222239624163 -1.7608998694585722422 1.2329389457920918449 1.4281422485083099527 0.041037246404481191042 2.8477490588146343597 2.5540053517261389615 -0.34055230371498329545 -1.0719360586099613286 1.6274014216065553207 2.5999589813975734209 -1.4912598999662280974;-1.2129434884433258901 -0.87795723229235556051 0.95285838805469691426 1.418299821039338493 -1.0544256392731397032 -0.26207791944699376785 1.6182928080003269322 0.46593267263968135561 0.31012279145482751774 -0.31992956190644128434 -0.011785790618791600406 -0.83759203659506087369 2.8266932797203119243 2.5062650648329345415 0.99766424509190787528 0.69397472945178217962 -1.1135226342018862411 -0.25492388040374286406 -2.640222961182741912 1.8964929312793963323;0.46188838844088092594 0.1882223724576570778 -0.59585108585874435594 -0.68302082915936535024 3.9415638435238591342 -0.82642195640563687054 -0.39488387319973955458 -6.4588556943672124078 -0.04845916407244176688 0.052123950622704480484 -0.94359847319361811468 2.8361266208024531466 0.64543992745523792731 0.37377109756773208016 0.14719674107877434022 1.474379648696649836 -0.80489186526346956363 -0.80752620467672697746 0.38399815096455958141 -0.47713126945049633143;-0.10021548364559855482 -0.83094904407016600967 -1.5014084258163251651 0.14787711782433901608 -0.84012260602903898743 1.1959008248631346483 0.66086364130776797943 -0.031479703834060970835 -0.52046666146944164932 0.53726111286594901983 0.065035994160150642496 0.26603925906875847129 0.44064580349147230987 -0.27894519641589365921 -2.5563951066151844316 0.054114333092383497259 0.14074953931341571689 1.1701898521785065732 -5.7431934780460087708 -0.11562638503084618491;-0.41886533129823105837 0.1107493757512711674 0.98421077514278632048 -2.2618936565006539929 -0.9914496068652879357 -1.1195306853822277748 -0.70282085996493692814 -3.5705382406693595421 -0.13005471586547279195 0.13144668745690199496 1.068589092084090586 1.0807421200430347152 0.048768236224152577973 0.2952336578798218647 2.2648782163657044109 -0.38685020044565565644 -0.25314642754471555763 -0.77032968136235335788 0.93648128601686075889 -0.7899465878112914563;0.23093502573633875596 0.69229369526353212727 -0.052385939627512555228 -0.24983079951023040577 -0.95022116510729859318 -0.70687139332380666268 -1.2891127361651006922 -0.26101800587892304284 -0.72130556945369794786 0.74687753224462105628 -0.49338124421109230688 0.22230636263207387282 -0.4728021244711480553 0.59519193913254786477 1.0923687064132068247 -0.43250968992916022371 -0.31075614539997081787 -0.69266648824512733196 1.8681268276145099883 -0.054147084829502076242;0.57538612190297688809 -0.44090175859612318332 -1.6896421199915971911 -0.79766048967211189424 2.994010191380901631 -1.4325293764143733899 0.3084287277475330491 -6.3521751691935461892 -2.7430872738268847755 2.8471337362921076419 0.67643093278389976319 2.1581714297464791308 0.83147638835794401846 -1.1285277781640485895 0.62969351331236178559 6.7484778590243967855 -0.034915104313645979606 -1.3962906784144151207 2.420877034113926296 0.51827540650163661518;0.15352887885261928824 0.65174438804165490957 0.57563556845757901659 0.19132120820182996201 0.31423316879732504647 -1.0116779622479181722 -0.39725329689098171082 0.17088143762376373225 -1.6854177620296433293 1.7469959331413802417 -0.076931056737993552819 -0.12176524138505602501 1.2927720986787751833 -0.099450304021541535704 0.67779037427915722613 -0.21080526272717317604 -0.053396030358285183348 -0.98722267994130596946 1.1256588428554270553 0.14570771296935280947];

% Layer 4
b4 = [-1.6637204675482537564;-0.52527231349407688121;-1.6728606833590351499;1.4707167862981853634;2.5693649067094841421;2.114796324606923239;0.2367662554059062896;0.63406611874759832848;1.5163335594494531389;0.92147215274959393128;1.7680861744010405445;0.14245897412574426433;-1.5209742310153298028;1.6481234691305941542;3.2540521705871761071;-1.8193499195507434329;2.4779150067938271462;-0.7466991888330523075;-2.0295677229000013142;-2.5256277296372005026];
LW4_3 = [-0.69234492255979784847 3.522650746196383853 0.084132890236251187122 -0.96886979079717694407 0.82623874060986801648 -0.10417270339562340054 0.083365650377942648874 0.88189273753099950426 -1.6682991781045266588 -0.52303288096671940455 0.044915795016199862311 3.6886707154976359213 -1.624074279282012645 -1.2888369955301905989 -0.56211686016464657012 -1.5842449708073862435 3.1361710863531309101 -2.0231760973519818947 0.28804829310404939102 -0.23766541655994241622;-0.78455812682189163265 -0.31739605277616467216 0.10957315237248357875 -0.00024600123429201892341 -0.12904799101355934887 -0.51790271768164641841 0.11009000605391136562 0.054987133434705050272 0.22117283612009369653 -2.0531529436040640846 -0.23033371277815775646 1.0375034242517651162 1.2263404775362221066 0.52431315318557658589 -0.83433016502470391806 1.67108046895255824 -2.0170612385238193554 -0.4972546943071349812 -0.20367507727316916388 1.9586784837521387104;0.17211635882246031914 1.747892027141690674 -0.093757573144114994546 -0.13739193973635799306 0.93238921463056001482 0.45761223234752579359 -0.094300723128268565398 -1.4096176512106608492 0.36475151465888050462 3.3392515660816703971 -0.077923047996673489024 -0.60132296497179771322 -0.10880902626732343041 0.31972162045436247624 -1.9786460906081042577 -1.8607143377339814272 1.1378779464304336067 -1.5290580629561210113 0.72158703695228076924 -1.342022342384295186;2.0213421251861194428 -0.84004161151455924994 0.30659227273175981843 0.021449033098400120678 -0.14541042082532407154 1.5458982745355935862 0.30649200590542219347 -0.85718894578805360229 2.3357584530152535329 1.302811388179745844 0.75317236850918833913 0.88714742597781126587 0.62330861307753471223 -2.7594103697944141196 1.6293513398905030698 -0.14675789327667759787 2.2921182484943591895 -2.2462129032104405368 -2.3681180400720713841 -0.9094531792962183836;-0.057942230162276425753 -0.88522172250097141966 0.22385224436958373051 0.5725861976948678489 -0.065541977072608517685 0.78702991491540663649 0.22492497470925634784 -1.1742102345618419257 -0.70640240940690579574 0.43849035191037166737 0.65085399035751911878 3.9163420546607845552 1.3992283589674869848 1.1734647336583974297 1.8045916432010886687 3.5900116656307718976 -2.235085713425634335 1.2566262455266905551 1.4078572678812177887 3.8926855095350538782;-1.7607928108680825918 -1.5586465723525773086 0.20477699890159123397 -1.1848338935947519968 -0.39253275649941388181 -0.54294624725698914514 0.20498472142622736758 -1.1970644222846216209 -2.2428062130187464973 -3.1429452802290698266 -0.31962519905500935691 -0.78452840090872277834 -0.58178787048604074794 1.4448896689440680063 2.499782036839218069 1.9921880784067129699 -1.3392755307832544531 1.5877851615996132484 -0.67415564554654516805 1.1044849837724650676;0.11444043932980182965 1.6174583200958134732 0.27386089148196951504 0.10434787781681288676 -0.090520776757441773208 -0.18404319398780955019 0.27389549909002763872 1.2741014682117699497 0.055450725802029574019 0.18599106158607556227 1.0676881611051116661 -0.68949152073995767509 -1.0768919016974924929 -0.10853462835725224966 -0.32414781052616853385 -0.4610683014101208399 0.24410798001688899239 -0.7130834719914462827 -0.8352037587018965592 0.045352677470810516536;-0.19739108553552020542 0.030494434929349514829 -0.372273833357440187 -0.51083198889968595147 0.31641083435098465992 -0.1060878729879510679 -0.37259960451982249152 2.0822397991878216494 0.7110995657065329878 -0.84072597989165998023 -0.67093519334769979867 1.0011867191743821781 1.4130580557841136979 1.9762027827645254341 -1.2779263219481651337 -0.098769029645072989321 -1.5144880590411147203 2.8681449608798064155 0.92373912130691926414 -1.6826876878812586646;-3.7060467554746141516 -1.6959127064267356388 -0.96103404814862447569 0.050013599185213503118 -0.096035727409148105571 1.0908655274168321814 -0.9616128682897062685 -1.5043329306503399057 -0.21366582215900870034 -4.7389146761247253892 -0.054701078146811757397 2.2562801858987215908 0.36012994991244623444 -2.0449916069713895972 2.6605354388133317656 -2.3347003295593689032 -0.19165635711596520907 2.1242763725448496892 -0.6460906776992800804 -3.3366580909119964993;-0.73146114007627371922 0.56034565275369885295 -0.041256141748172332762 -0.48447365408693443545 -0.03293831600550366917 -0.23788625353691059128 -0.041206999750026306051 0.70693620634319165319 0.30863858945475941553 -1.3551466515680152813 -0.73219067442208851659 0.73217877951619503296 0.46174832974000618036 2.1037899487437425883 1.1537858749857330398 0.24080936587472778765 -0.64518299573973159067 -0.2184034753316558275 -0.57202902462946858542 0.24423297867085710933;-1.7629019205659446357 -1.856954369754103551 0.12046434491357704832 0.1239292010867065752 -0.52834486467605235038 -0.974183225873644143 0.12101391082843336588 -1.5518916566719822558 -1.0752934930031590177 -2.8585797050682062448 0.097407286093739164912 0.72562821277722955315 -0.60708988199699687183 0.30824289479086663945 2.4225308730997352491 1.9377903147996600186 -2.1935858164295640726 1.8390448153797600561 0.037525123022662233707 1.7287332074864147913;0.78913423942211469164 1.2465429005000707718 -0.04469476363012985648 0.1729853112956283856 -0.20119511233632900171 -0.22775286503852160136 -0.044810950587600997808 0.72850367304736862728 -0.24375353477100200617 0.13749488847990265494 1.041878346392402177 -0.81681045396229412514 -0.76733530630797619487 -0.17397807208542770407 -0.97195676412438780645 -0.82762556165950951215 -0.35980680269717857378 0.80182215557296687702 0.967509183633226022 -0.78076206886034604793;-0.19491477022674705277 -0.22029597231954850534 -0.27526534222668036511 0.24755336834482616348 -0.12343128205445892676 0.064753732115613873987 -0.27515277060446174939 -2.5622309516516303951 1.0566631383613283024 3.2662240950728920197 1.4173853596464698335 -1.2765763640067344653 -0.83782595774006884959 -1.8596784497593334962 1.4388745529458184524 -0.99507276635177344115 1.2717749767248527348 -2.0489875003179887081 -1.879481329475494622 0.40069701264355050974;0.96357583634601251532 -0.17116374721524404978 0.90119888529967395741 0.3562452164605091065 0.10496155023663458761 0.067711356700571850853 0.90138118162690095136 2.0625225766983024123 0.11913908819002066997 -1.6812294452636840081 0.25141476580721405787 3.7983827124559961241 1.9914811408048915808 2.2174799822969499807 3.1069134158801654522 1.1460466768044632602 -0.34230661721476696169 1.3521466274551512399 3.2270436484162212665 0.62663958420031495855;-1.6404109066330956335 -3.4259704390722700573 -0.067071430188129513295 0.55609175140033262341 -0.84861416599594519106 -5.8390682436943519562 -0.066690547881141995501 -2.6431942754255000061 -2.1604567008290112007 -0.26874567375214469811 -0.026991926730180693106 0.40213614957518706294 -1.074635407256007813 -2.316799542589030203 1.9782295931350786233 1.9333022746653096835 -1.2150149505038805309 3.4088851536102753315 -0.17964669893144286084 1.0739816867593194871;0.75081652577176927199 -0.016587125025512239329 0.22471814829828554161 0.50214166524602132924 -0.057286442002809662144 0.27981447071026083195 0.22476349721493221745 -1.148895403170615781 -0.82184860022221339904 2.3844763432585271978 0.64998518578739861162 -0.9109765607167685797 -1.1689447215941588532 -2.0495667643313089101 0.09867087409642909257 -0.34717266794603096614 1.3607612277501814901 -1.4970664381318137259 0.031364496843385561431 0.34531654646202258885;-1.0346573605733151435 0.48636594209421535329 0.17621871722333060095 0.68067503504020243632 0.99734808394627838535 0.4061128026447738959 0.17544887312609092067 -2.5095259240007576906 -0.47178545061258742033 -0.46171979757049613768 -0.23442555470275300289 2.4138043907190982473 0.44141949286274406727 -1.5727028632224282489 1.9415507428415859081 -2.317752966127638814 2.8057363970413300436 -2.0825575563976301829 1.1994015627633778376 -3.0206936001017896665;-0.28939038215341683635 -1.2757686165770667497 0.40145522457938642713 0.76888564059515085436 -0.52545747951220422856 -0.31219178796061969328 0.40200021118213424831 -2.0994172901499994488 -0.44630186561515722277 -1.3080717415541631699 0.75732220432904084895 -1.0054178383350049764 -0.42955643060827153334 -2.5694129674848311673 0.39090454852971234789 1.1907803232959894846 0.20160864284579405048 -1.1541165534392405778 -0.15465416918515237366 2.445481326654193488;-0.90027835709028847244 -0.4174806360188052512 0.15882698545570839155 -0.21380762408637862815 0.39547230989182924343 0.49054124029819834441 0.15877551639667286665 -0.11033530430596955041 0.023249461875029110713 1.1519539814624379925 -0.86899145041985126348 0.34264167327298444832 0.16681507368619244436 0.14907554358022087615 1.7046236037759461279 0.076521125072922566157 0.95018975130748895008 -1.5826298031906509411 -1.4633541193744639131 0.27290976287065105144;0.79071003290181807177 -0.21812106312969634092 0.077340756880593136691 0.0070072133215019474436 -0.0090050739088314412512 0.46357337987826807701 0.076854554683592132824 -0.32207149867614603966 0.50449040750763252117 3.0928267769316115654 0.31730444921563694116 -0.7919681276830765615 0.65622844000545377252 -1.5189111554433034623 0.90306409827912570432 -1.2896892467012051053 0.78386990640025044907 -0.67317978980763171215 -1.435244919814229414 -1.6956135518460009326];

% Layer 5
b5 = 2.4998785375717185175;
LW5_4 = [-5.3290950767839806446 -2.1994064425243871064 13.468946876358174336 0.23423939133348964381 7.5907740854509047068 5.4486043016035150544 2.259824886309313996 2.0778694270815822875 5.1022966982205009145 1.842370061466404918 -14.530670003754465824 -4.9362241493393694824 0.32788049424208071114 0.53145009285415789613 4.4572919518116078663 2.6547356345301391656 -3.3339643418774045358 0.69665259981502947184 -3.2811315583193931822 -1.3605048721544041879];
 
        case 4
% ===== NEURAL NETWORK CONSTANTS =====

% Layer 1
b1 = [-0.51503625420928267342;-3.0931512590732617163;0.69667425774942570715;-2.2917519555801724174;-1.3608552600163490442;2.2649675127650246154;-2.9108074260728371563;2.7153214445461739679];
IW1_1 = [-0.02100847144258733562;0.020285274852110037752;0.03687190058677315696;-0.0048157706409589651902;-0.0028962886322362901316;-0.018067414322742132021;0.0096299968359006768437;-0.0091645373880390647997];
IW1_2 = [5.4056714639105010178;2.0840640922628774767;-0.99361616509315375811;3.8860537654384308404;2.8338002114119498209;-1.4935579597127004448;0.94543650711103444095;-2.5082317541307665998];
IW1_3 = [-0.31024384843413904678;2.071065699163151308;-0.67881628887797618166;1.7122738637037278053;1.3337933806675108528;-1.8159121806323110793;1.7898433227484895625;2.1577769356021900826];
IW1_4 = [0.010070384393816423849;0.0033116672576656890417;0.00026157360959662835469;0.015826545871878174715;-0.042212553901462036843;0.00023913310738787595133;-0.0028638522148175761181;-0.0025632352877292298443];
IW1_5 = [-7.7101953597478954639e-06;-0.082867133122378200394;-1.4778659294001562346e-05;2.2406242278560844369e-06;2.5707845423167971586e-06;-3.3580666376252484636e-06;7.7657244149737108293e-05;1.1033427188028252835e-06];
IW1_6 = [-0.14903187362323899734;0.00068264745196432413243;0.0010331103800383131634;-0.00015755409527225139473;-0.00012347742725923828086;-0.0004048837277244200371;-0.00032128597964385549558;0.1215349810763522026];
IW1_7 = [-0.007006966751019709852;0.029113054487562711747;-0.1053321593535084949;0.044231988929210860895;0.11585039984437868477;-0.44501636392730270497;-1.3336937572118856554;-0.036038419999913251512];
IW1_8 = [0.015396524384373689101;0.006156717730118367593;9.3013409308627517441e-05;0.033519439654583788046;0.10572536207047433798;0.0012411417218912545318;-0.0070741508792165862241;-0.0014268312293191115925];

% Layer 2
b2 = [-6.6758522005946145939;-2.1486118586160705135;-0.59322419025566519579;5.9127865324236754674;-0.48354891902559227201;-2.6034244026543489348;-2.4363460964826324506;5.0657639442656643425;-2.3110048375586971225;1.0799719506248148804;6.1206945138838708687;3.0769068512919632852;-2.1531857959293461136;-1.6443811274205792916;0.17950702124716416686;-1.746154781170167869;-0.066369176275819105615;1.2730431018792744968;3.4392735432172814036;4.7451722078622529111];
LW2_1 = [0.93630380902571397339 -0.34697075714816721925 -0.11326574059174107645 9.4480022681267517015 -0.046376530412050892549 -1.072760707980743522 2.8794873684352877419 0.0032765657230044054234;-0.071607908045869680946 2.6191925355531280317 0.73855517206011245257 -1.6575956053524831812 0.0069591757665645407466 -0.25841221594373309234 0.60389517862283492722 3.2363774471622241968;1.9147425602107661646 6.4414107328322334212 0.28002749691764489137 0.46817181689844744596 0.14589748162710350354 0.43758718650264516459 -3.2660014929111707005 -0.42594690536442586515;0.27641418419600960465 0.16897580622111921245 1.1708819814882736043 2.5737495778437637917 -7.3546442935505274008 3.2719782340154721645 3.0081382162270693392 -0.0065513640687383575129;0.14569308649120579768 0.17674392479421044411 2.1201835956761394542 -2.5932905289996610598 -0.042776584907114702239 5.3344716358372190612 -0.74650249509988819696 -0.023849729943343851019;0.58500432187264506112 -0.23481225458257121153 -1.459987169443651478 -2.5168189607243753869 -0.019021991944953259984 -3.530240177922504774 -5.5758282116459136901 -0.0049209992466593046462;2.8899972019562802927 -0.94161535021098741183 1.0633971519787845939 -2.3483388464763779169 0.050533522513088985351 -0.077508347686230008589 -1.023848677235489113 0.020877373212871471603;0.083086507947069870861 0.13299170133697474361 -1.7061294032702170043 5.7241032487056680012 -10.927170391970319585 -2.6507850118323079691 1.3093634121394592817 0.071663328436935153087;3.5873095195848683225 1.3581610641234120873 -7.1380489264938375982 -1.1510449839706358155 -0.082477763361173003775 2.6988741643894198496 -3.0226192188837051056 -0.36889950195577120295;0.5931618221673073954 -0.12359050469755028523 0.21406566945044336325 -4.9759211140005321639 0.40976506571564952353 0.45194071310120015328 -1.55052328497241243 -5.2567214757426352634;0.57023563422417167246 7.6410559408200455778 -1.1192222595701295518 -0.39981044146233751801 0.021986029349803700578 0.19491685943461248276 0.3471351371552780507 -0.019176135771337397135;1.0864153795442716977 3.1932480236944824625 1.4725103229426332874 -1.6991317615383030315 0.12218605697861052717 -0.22184534145643783343 -0.1261022891513731703 -1.3231024783846681014;-0.16932232108254974268 0.01344169640201440391 1.2266881019653548268 -0.77594456799398592306 -0.044374062182568813073 3.1009468479037627375 -1.1668964216631592112 -8.1499657504031865381e-05;-0.16895059742008491921 0.13722352753692265703 1.361915768909891078 -0.10255185997497040518 0.33953538934983829023 3.2623397052443876554 -1.0960560452153118582 -0.011627517388734822518;1.1008578657701797443 -0.21431243483066514388 0.81820826351549413857 0.63514878524559725825 -0.66350697472991526649 0.12285631053136403246 -1.0400922313506930639 -0.31622904720710703907;0.21537289669371026402 0.15239090229477900151 -1.393317648216660265 -8.5965950015792920169 -0.40271791836124165576 -1.078001945693454422 1.6610861994382588591 -0.46078694111057505456;0.10600462257156405277 -0.8241972021443233487 -1.0030145913806742808 0.19509718107679763222 0.034654652151828613249 -2.8506914230294899681 -0.049881196840723916741 -0.025223720347832503941;2.2045727803691961277 0.7012141638057410864 1.3802748174625747435 0.44064230724491965097 -0.21361901984957384903 -0.91166478532965178339 0.92833732558070669594 3.0807069537668985149;0.46354853563264070138 -0.13245718151220203795 -0.80102773475102262424 -0.99197215824736273415 0.036179848414343102059 -1.2000985226861979882 2.8646073523090294088 0.0016687027661441021422;1.8181055964484551524 -0.84071308543784728506 11.329788560475758885 -0.26140436695597529804 0.09684776964287951373 -3.3276409582131374343 1.1867101036273539627 -0.39991804500466704431];

% Layer 3
b3 = [-1.663613435174264632;-2.9946515776243134432;4.3598892414505954207;6.3162555241406872497;-0.26709165414921720583;0.18400588748375498738;0.85185800737141481598;4.0977730937369125641;1.195451947377012214;1.1214584126785900331;-2.7589410350213778855;1.8661240318979019914;-4.4624211996962550586;-9.2786256457619664673;-2.3684844138847687134;0.99216571213841753263;0.22722079496917887975;1.5948753186007107452;2.7031431802747842852;-2.9802224745477579049];
LW3_2 = [0.13446135013700832861 1.5021706744908926989 -0.39111724040734402452 0.15634974717553581924 0.06466489026014091146 0.87499421612261407688 -1.1860220761788333732 -0.49901313746539405214 0.57215017676896551269 2.5764556248100816127 0.74035892509985856691 -1.2133237836046126823 -0.35091393307126717005 1.4239956338576129635 -0.73836132889820116354 0.86753163829807911078 1.2318307563489276912 0.14949968858214948697 -0.16058254152723278052 1.2135227155257883869;-0.42115532482009737647 0.011324468386812999027 -0.40404590761465752902 0.046337092414650830896 -0.64440922981602732911 -1.3906472164034939798 0.91626163231830826117 -0.063008438852167752975 -1.159363090567636867 -1.4920208207264560318 0.49108585546652849807 -0.17369474631489764671 -1.9589911570249629591 -0.50558653763229444156 -1.0828020813717618154 0.703682783955839386 0.60379354114215311178 1.0265386889767127432 -3.2780557806373904484 1.4594361990177129318;2.3366003262311143551 -2.1074731629776368713 -1.1564183983925651056 0.0014207903611403146019 -0.85331842312861128086 -1.2046332404926054505 1.9423793545926095749 -0.13407940197746887057 -1.4940057164749531715 -1.7141245170210501758 -0.96087017341803460102 1.6384700415159796361 -0.33900850515018660092 -0.7953328197534984545 -0.09072942986170888513 0.48350409029359980861 -1.3118454096698977107 -0.19056509232294510658 0.22231681746641127062 -1.9288239125735184842;-0.0032196871744429862543 2.2383506576155935974 0.23523751968084194441 -0.12767658377859317231 -1.0612769814149392023 -2.6301259439456639022 0.1642366494608001326 -0.013572600029978095296 0.72650269614706086685 -2.4443985687207780977 -0.025839757624118258467 -0.13420166748701486958 4.7808129365623397433 -3.3358244588083389992 -2.5452863311983628947 0.15191796339832758234 1.2627306954993886556 -1.7131631222678773696 0.76232921366377637273 0.19190290785244612515;0.45358783931025697944 -0.85669542071017812379 -0.79219794497405537914 0.85790892617465419612 2.184979894178110893 -0.27043573517175800713 0.80318790362134118155 -0.39593645228710427908 0.45284745103677320754 0.064590642786170035516 -0.58891212985356988785 0.82782390780823011944 -5.5265350944318960558 6.0451903724986015831 -0.20360988143545424855 -0.62236153730943821749 0.75862149949904444934 -0.27642507981663161365 1.3963343176557940772 -1.1779841066110456893;0.58295717759917087264 0.81092529148334946409 -0.3256195796599640202 0.026944727389389577787 -0.066084345379482975491 0.27417591560260423655 1.9927607086193599439 -0.0074665006615989666303 -0.079726662669678732831 4.7523839039255948435 0.49087549873622882135 0.36117466008908799546 -2.3728908601257829858 0.16098606280214142195 1.1898625476902227049 -0.38735478207175061405 -1.9997696229357047049 1.4329658954036590401 0.33728385765045471034 0.94952919534985935623;-0.45136561881754672099 0.62801019460895779467 1.0908096446755766173 -0.51941732066878598673 2.733275832118744475 3.0653940183843690903 -1.7454754631848738988 0.4301404689379520474 6.0092437029486704958 3.7201837381940086047 -0.10651781195176278361 -0.51195271606498959915 0.83648263433744962647 -0.67684630079019125759 0.3021572026286050705 4.083234408480238109 0.56526070700556774185 -1.1306886206014827856 -2.9496570376475994557 2.4550368595118303716;-1.0364431288852553603 2.4453959731353585028 -1.1892900373838828365 -0.098862204166173778264 -1.0978898171721085397 -2.8084450256190822692 -2.0207543815970412382 -0.022659858430500036397 5.1743138236031276378 -2.2099999820374693904 -0.040971025750840953106 -0.32014812903037859204 5.1014705129583868271 -3.0734182306494575165 -2.308882520923557724 0.1185215589071048764 1.8587089591840397773 -1.3327147471127140932 0.81464552448568705589 2.4283917743267005029;2.9045220121320585172 2.7276601047410991008 -0.18875669756161059243 -0.16740894345459281234 1.4592196156864480905 1.8637959107592600994 -3.3504029845390226328 -2.7243938023312894714 2.1995802652659524057 8.2163651041479770498 1.0915362597733118122 -2.2956838766014739939 0.2372927960100836009 1.1611326955681644524 -1.8403317112697632485 5.3332662349430366433 1.9193147216688948298 -0.65595232203221232048 -0.44369761789811795749 2.1933052486759230248;-0.072878393737462576762 -0.089839137499051008318 0.19737714999282807149 0.042817044754893500424 -0.30128361804799613788 -0.51221661784922944971 -0.2959994272479773425 -0.059496196194041277294 0.35506357217223427636 0.10599155999078685442 -0.41711815291672799111 0.2106148787934061517 -0.39727888278134992905 -0.12328459570794569888 0.31789015737654041649 -0.097875801684239135958 -0.61469565840106066279 -0.62587711752541941301 1.9486354863806880644 -0.80809573174981685906;-0.81481657729837997373 -0.29346326699243224789 0.23063453755582738469 0.14389890782891154308 0.026413975968017769369 -0.48100386778293097167 -1.2162363108086340358 -0.038477182842043780586 1.3666721879167598175 -0.2381325041194520542 0.46458271185029204053 -0.43542597655278697522 2.4199207965071218851 1.8180117358708887121 0.16096249539980825305 0.21523042585367002655 4.0611404020808361537 1.5586932996059237322 -0.064507700241383095219 0.077052410274077373642;0.78037031742302664927 -1.0826637674560177782 -0.58308652961463180997 -1.0137058091337294297 0.38039816820943689324 -0.77738163167702389877 0.13248177072210054472 1.0353725985124031528 -1.9343563359923514611 0.17943895223190423072 -0.50844006373491590356 0.6510782411810678294 0.17903139690301372866 -1.4165414515524714645 1.1375063747515068435 0.74930228978717161592 -1.4969903677927269836 -1.0748662342079713383 1.5212679093476950687 -1.1834286119679577887;1.1673523254143423067 4.2818001821837388121 2.9165941275683886502 0.18808828114028369738 0.75024742551227296961 1.6652267446123243388 -6.3833728615659177663 1.656229534967486039 1.9591037802801942735 4.5105311577149800328 1.6178389342257430972 -3.4586510324651342785 2.4395836628590004125 -1.3193350184835137551 1.8431763848772890757 -0.74435105213308816463 1.4343146623096258985 -0.91954317469866286849 1.3306546735102389167 3.0667868927103545396;-11.787673537832800363 0.56784928167228332363 0.41882172105368503656 0.08151414716742080846 0.88489888053591403416 3.5885471205002534845 2.4874261399905419623 -0.038180020587326835013 7.8092060872010344852 -0.91456266805017594201 -0.074373990478761337064 -0.44891907440898493054 0.92515607595087068216 0.55604740143835862387 -0.24185496506888859436 0.23024329175416571869 1.2069714105523685621 -0.17102188437588372594 1.6630923732774485213 0.33343178756714692001;-1.5626405489881003419 -0.14351775093618127088 1.7133726636847546043 -8.0501438780069367596 1.8259025347345261281 -0.97316478086126168012 -0.31043572920390921643 -4.5717824078902387086 -0.015775076017646619264 -0.69645586616153620785 -0.46434903504109298344 -1.300785242730997826 0.51075906197379883356 1.4399069206109196273 -1.5517924795553417194 0.67890928424744101388 -4.0935837129672103529 -1.7877907059898203723 1.1439767331200834111 0.29071609368190493017;-0.58956582495218756712 -0.60056918099019040991 0.42654884942525261859 -0.0062787906272045784437 0.18305931704346922739 -0.042168436257762738351 0.24115026486122129179 0.030887053637481717838 -3.1527349327235141274 0.49211509083621873817 1.4004710638300403858 -0.72526513800216019234 1.503213065235607715 0.53079233722127439066 2.7056442386773631448 -0.37355354407831253827 2.3069899612095681185 -0.83644227446825447636 -1.3438969217932692501 0.018315191342893250015;0.52841550851583507509 -0.77782493100615290871 -0.88606339319375027053 0.3418079714788921919 -1.3882995036578782422 -1.2963430413420049536 0.68013661680072667881 -0.25006326651298832475 -2.8533194077164787394 -2.5598696842506005744 -0.35146407588851680259 0.51376560043755914453 -0.72836333882910631043 0.62797388601024028976 1.275506194860452247 -0.68912764411567595246 -0.33560292553325560272 -0.30767715142204021816 1.3119675657479163977 -1.781064460460186627;-1.5252290135729500431 1.0305305153490946779 0.10783312751298017307 -16.110181620174852668 4.7370738074504012971 -5.2268381279286471042 -0.87043202306253231182 0.107763403565252186 -4.5708229254362366945 -1.6373454224933325918 0.16280258980703221638 -0.31319487641458243488 2.529684730267877768 6.7070870080845841343 0.46681835043214642278 0.94183695752777307764 1.7277702136691086565 0.97017498852999040082 -0.18651748739136969624 0.27204534388306828019;0.43137830265068799473 -1.4758462337669895348 -0.063648553231748450365 0.034098677754634779125 -0.37843130345698228201 -0.30275520014678136693 -0.29186767398474416924 0.014961907763524641066 -1.2550757549682738379 3.8257875591011125671 -0.41325666466587784864 0.524935546014587473 -0.79164742428920664707 0.02094687852133702774 0.69382264994829712101 -0.8695966794098494157 -1.624737721739727192 -0.93660319959666871181 1.8798293141967252762 -0.90992853335023127226;-0.055891949092217264872 1.9089987722825239036 0.18864565085166343228 0.0089975974804297042392 0.3128192992084623536 1.1815422866062326168 0.010641488895129924339 0.011429938680038073326 5.8915905027496471291 -0.76780927051902769787 -0.2976037663406464473 -0.049770208682962405189 -1.3398200708365335387 0.46412556114818676045 -1.1654130758466267892 0.6857290102574203905 -0.85944343115677424016 -1.329381103849961443 -1.5513651667754442265 0.021390118348872409759];

% Layer 4
b4 = [1.7858889479486654839;-2.541387490706321195;-1.0204911175550628322;-1.93650533740636277;-3.0924435767508082762;-1.1151490465105318162;0.46683620495933603189;-8.2570702095455477121;3.0579916718690394184;-0.0098701985260728330313;-2.7982518279266122008;-0.70453107039418250146;1.6915737579924434719;-1.1063079650414597843;-0.93241938958288050898;-1.7961869465501725251;2.0837599596572551341;-1.8048575315290955601;-2.6673697986630742207;1.1810063342262338004];
